<?xml version="1.0"?>
<opencv_storage>
<cascade>
  <stageType>BOOST</stageType>
  <featureType>HAAR</featureType>
  <height>20</height>
  <width>20</width>
  <stageParams>
    <boostType>GAB</boostType>
    <minHitRate>9.9500000476837158e-01</minHitRate>
    <maxFalseAlarm>5.0000000000000000e-01</maxFalseAlarm>
    <weightTrimRate>9.4999999999999996e-01</weightTrimRate>
    <maxDepth>1</maxDepth>
    <maxWeakCount>100</maxWeakCount></stageParams>
  <featureParams>
    <maxCatCount>0</maxCatCount>
    <featSize>1</featSize>
    <mode>BASIC</mode></featureParams>
  <stageNum>10</stageNum>
  <stages>
    <!-- stage 0 -->
    <_>
      <maxWeakCount>56</maxWeakCount>
      <stageThreshold>-5.5864572525024414e-01</stageThreshold>
      <weakClassifiers>
        <_>
          <internalNodes>
            0 -1 357 -3.4021581523120403e-03</internalNodes>
          <leafValues>
            5.3650796413421631e-01 1.8620689213275909e-01</leafValues></_>
        <_>
          <internalNodes>
            0 -1 66 -3.5970583558082581e-02</internalNodes>
          <leafValues>
            3.2120966911315918e-01 -8.3097949624061584e-02</leafValues></_>
        <_>
          <internalNodes>
            0 -1 498 -5.2307457663118839e-03</internalNodes>
          <leafValues>
            -7.5249445438385010e-01 1.0394960409030318e-03</leafValues></_>
        <_>
          <internalNodes>
            0 -1 462 -1.8947180360555649e-02</internalNodes>
          <leafValues>
            2.8265324234962463e-01 -1.0840666294097900e-01</leafValues></_>
        <_>
          <internalNodes>
            0 -1 194 -2.4742102250456810e-03</internalNodes>
          <leafValues>
            -1.8666836619377136e-01 1.5000401437282562e-01</leafValues></_>
        <_>
          <internalNodes>
            0 -1 111 1.0567785240709782e-02</internalNodes>
          <leafValues>
            4.5334253460168839e-02 -4.7885140776634216e-01</leafValues></_>
        <_>
          <internalNodes>
            0 -1 202 1.2555399909615517e-02</internalNodes>
          <leafValues>
            -6.0316745191812515e-02 4.2733913660049438e-01</leafValues></_>
        <_>
          <internalNodes>
            0 -1 27 -8.1281475722789764e-03</internalNodes>
          <leafValues>
            1.9800397753715515e-01 -1.4933148026466370e-01</leafValues></_>
        <_>
          <internalNodes>
            0 -1 65 -1.3594243675470352e-02</internalNodes>
          <leafValues>
            2.4719578027725220e-01 -1.2124188244342804e-01</leafValues></_>
        <_>
          <internalNodes>
            0 -1 95 1.1033214628696442e-02</internalNodes>
          <leafValues>
            3.1868226826190948e-02 -8.2426303625106812e-01</leafValues></_>
        <_>
          <internalNodes>
            0 -1 452 1.7473578453063965e-02</internalNodes>
          <leafValues>
            -9.8453976213932037e-02 2.7061581611633301e-01</leafValues></_>
        <_>
          <internalNodes>
            0 -1 203 -2.1688528358936310e-03</internalNodes>
          <leafValues>
            2.4954771995544434e-01 -1.0127592086791992e-01</leafValues></_>
        <_>
          <internalNodes>
            0 -1 41 -2.2865882143378258e-02</internalNodes>
          <leafValues>
            3.3829578757286072e-01 -7.9614453017711639e-02</leafValues></_>
        <_>
          <internalNodes>
            0 -1 221 8.6891604587435722e-03</internalNodes>
          <leafValues>
            7.2835020720958710e-02 -3.4250557422637939e-01</leafValues></_>
        <_>
          <internalNodes>
            0 -1 508 4.3540345504879951e-03</internalNodes>
          <leafValues>
            -1.0579670220613480e-01 2.4692597985267639e-01</leafValues></_>
        <_>
          <internalNodes>
            0 -1 374 1.3870431482791901e-01</internalNodes>
          <leafValues>
            -2.5523338466882706e-02 8.9044672250747681e-01</leafValues></_>
        <_>
          <internalNodes>
            0 -1 577 3.0153761617839336e-03</internalNodes>
          <leafValues>
            5.7311221957206726e-02 -5.1356106996536255e-01</leafValues></_>
        <_>
          <internalNodes>
            0 -1 577 -2.1470235660672188e-03</internalNodes>
          <leafValues>
            -4.4825881719589233e-01 7.0667527616024017e-02</leafValues></_>
        <_>
          <internalNodes>
            0 -1 113 -5.2204392850399017e-03</internalNodes>
          <leafValues>
            -6.1043292284011841e-01 4.3676231056451797e-02</leafValues></_>
        <_>
          <internalNodes>
            0 -1 379 -8.2329377532005310e-02</internalNodes>
          <leafValues>
            8.0309277772903442e-01 -3.4449823200702667e-02</leafValues></_>
        <_>
          <internalNodes>
            0 -1 334 -5.4179010912775993e-03</internalNodes>
          <leafValues>
            1.9936683773994446e-01 -1.2446435540914536e-01</leafValues></_>
        <_>
          <internalNodes>
            0 -1 526 -7.7142543159425259e-04</internalNodes>
          <leafValues>
            1.7940390110015869e-01 -1.3943131268024445e-01</leafValues></_>
        <_>
          <internalNodes>
            0 -1 251 7.6290001161396503e-03</internalNodes>
          <leafValues>
            -1.2970761954784393e-01 2.3092764616012573e-01</leafValues></_>
        <_>
          <internalNodes>
            0 -1 138 2.8591663576662540e-03</internalNodes>
          <leafValues>
            5.5102076381444931e-02 -4.8721626400947571e-01</leafValues></_>
        <_>
          <internalNodes>
            0 -1 145 -8.5548117756843567e-02</internalNodes>
          <leafValues>
            3.3390873670578003e-01 -7.7858351171016693e-02</leafValues></_>
        <_>
          <internalNodes>
            0 -1 421 -1.1889221146702766e-02</internalNodes>
          <leafValues>
            -6.8364250659942627e-01 4.4461864978075027e-02</leafValues></_>
        <_>
          <internalNodes>
            0 -1 137 7.0433199405670166e-02</internalNodes>
          <leafValues>
            -5.0875369459390640e-02 6.5987735986709595e-01</leafValues></_>
        <_>
          <internalNodes>
            0 -1 567 3.4035235643386841e-02</internalNodes>
          <leafValues>
            -4.2763825505971909e-02 5.9824436902999878e-01</leafValues></_>
        <_>
          <internalNodes>
            0 -1 293 5.2891890518367290e-03</internalNodes>
          <leafValues>
            1.0254078358411789e-01 -2.5363433361053467e-01</leafValues></_>
        <_>
          <internalNodes>
            0 -1 189 3.4298315644264221e-02</internalNodes>
          <leafValues>
            -6.5382525324821472e-02 3.7304347753524780e-01</leafValues></_>
        <_>
          <internalNodes>
            0 -1 49 -8.3188107237219810e-03</internalNodes>
          <leafValues>
            -3.2404899597167969e-01 7.4698932468891144e-02</leafValues></_>
        <_>
          <internalNodes>
            0 -1 102 -1.1979943141341209e-02</internalNodes>
          <leafValues>
            2.4729739129543304e-01 -1.3867135345935822e-01</leafValues></_>
        <_>
          <internalNodes>
            0 -1 347 5.3055388852953911e-03</internalNodes>
          <leafValues>
            1.1279898881912231e-01 -2.1208494901657104e-01</leafValues></_>
        <_>
          <internalNodes>
            0 -1 124 -8.6431289091706276e-03</internalNodes>
          <leafValues>
            1.9439290463924408e-01 -1.1915741860866547e-01</leafValues></_>
        <_>
          <internalNodes>
            0 -1 252 -3.5931910388171673e-03</internalNodes>
          <leafValues>
            -5.5893737077713013e-01 5.1011711359024048e-02</leafValues></_>
        <_>
          <internalNodes>
            0 -1 316 -1.3254284858703613e-03</internalNodes>
          <leafValues>
            1.6740219295024872e-01 -1.4367598295211792e-01</leafValues></_>
        <_>
          <internalNodes>
            0 -1 166 -2.9503982514142990e-02</internalNodes>
          <leafValues>
            -5.3413885831832886e-01 5.0570242106914520e-02</leafValues></_>
        <_>
          <internalNodes>
            0 -1 362 2.5480217300355434e-03</internalNodes>
          <leafValues>
            8.5637345910072327e-02 -2.9323053359985352e-01</leafValues></_>
        <_>
          <internalNodes>
            0 -1 570 -2.3715060204267502e-02</internalNodes>
          <leafValues>
            2.5690817832946777e-01 -1.0977536439895630e-01</leafValues></_>
        <_>
          <internalNodes>
            0 -1 368 7.3059601709246635e-04</internalNodes>
          <leafValues>
            -1.2302360683679581e-01 2.2043184936046600e-01</leafValues></_>
        <_>
          <internalNodes>
            0 -1 317 -1.0287901386618614e-03</internalNodes>
          <leafValues>
            2.5501617789268494e-01 -1.4537411928176880e-01</leafValues></_>
        <_>
          <internalNodes>
            0 -1 548 3.5248941276222467e-03</internalNodes>
          <leafValues>
            5.9360049664974213e-02 -4.7856563329696655e-01</leafValues></_>
        <_>
          <internalNodes>
            0 -1 647 4.2657069861888885e-03</internalNodes>
          <leafValues>
            2.9409548267722130e-02 -7.2907882928848267e-01</leafValues></_>
        <_>
          <internalNodes>
            0 -1 400 -3.8008473813533783e-02</internalNodes>
          <leafValues>
            3.7229779362678528e-01 -6.9022886455059052e-02</leafValues></_>
        <_>
          <internalNodes>
            0 -1 470 -4.1513242758810520e-03</internalNodes>
          <leafValues>
            -6.8897885084152222e-01 3.9991494268178940e-02</leafValues></_>
        <_>
          <internalNodes>
            0 -1 560 -6.5755145624279976e-03</internalNodes>
          <leafValues>
            5.0485676527023315e-01 -5.5456690490245819e-02</leafValues></_>
        <_>
          <internalNodes>
            0 -1 522 -1.5073958784341812e-02</internalNodes>
          <leafValues>
            -7.3649698495864868e-01 4.1252095252275467e-02</leafValues></_>
        <_>
          <internalNodes>
            0 -1 505 -1.0646790266036987e-02</internalNodes>
          <leafValues>
            2.0610816776752472e-01 -1.2716324627399445e-01</leafValues></_>
        <_>
          <internalNodes>
            0 -1 441 -1.4014622196555138e-02</internalNodes>
          <leafValues>
            -6.7961555719375610e-01 4.1171114891767502e-02</leafValues></_>
        <_>
          <internalNodes>
            0 -1 188 -2.5919672101736069e-02</internalNodes>
          <leafValues>
            7.4692827463150024e-01 -4.0265213698148727e-02</leafValues></_>
        <_>
          <internalNodes>
            0 -1 162 6.3990345224738121e-03</internalNodes>
          <leafValues>
            -4.3608080595731735e-02 4.8504480719566345e-01</leafValues></_>
        <_>
          <internalNodes>
            0 -1 273 3.1470574322156608e-04</internalNodes>
          <leafValues>
            -1.3476434350013733e-01 1.8671326339244843e-01</leafValues></_>
        <_>
          <internalNodes>
            0 -1 546 7.6743718236684799e-03</internalNodes>
          <leafValues>
            -4.8537708818912506e-02 5.1453661918640137e-01</leafValues></_>
        <_>
          <internalNodes>
            0 -1 329 1.0780217126011848e-02</internalNodes>
          <leafValues>
            5.4661296308040619e-02 -5.1001089811325073e-01</leafValues></_>
        <_>
          <internalNodes>
            0 -1 201 1.9608676433563232e-01</internalNodes>
          <leafValues>
            -6.1394359916448593e-02 4.6111455559730530e-01</leafValues></_>
        <_>
          <internalNodes>
            0 -1 159 8.9413642883300781e-02</internalNodes>
          <leafValues>
            2.9518222436308861e-02 -9.4510954618453979e-01</leafValues></_></weakClassifiers></_>
    <!-- stage 1 -->
    <_>
      <maxWeakCount>62</maxWeakCount>
      <stageThreshold>-5.6361496448516846e-01</stageThreshold>
      <weakClassifiers>
        <_>
          <internalNodes>
            0 -1 407 -1.5571864787489176e-03</internalNodes>
          <leafValues>
            5.5298012495040894e-01 1.8526785075664520e-01</leafValues></_>
        <_>
          <internalNodes>
            0 -1 125 -1.8360264366492629e-03</internalNodes>
          <leafValues>
            2.1542462706565857e-01 -1.1896065622568130e-01</leafValues></_>
        <_>
          <internalNodes>
            0 -1 0 8.0512240529060364e-03</internalNodes>
          <leafValues>
            -8.9028723537921906e-02 3.3354169130325317e-01</leafValues></_>
        <_>
          <internalNodes>
            0 -1 409 1.9216809887439013e-03</internalNodes>
          <leafValues>
            -1.7529912292957306e-01 2.0941136777400970e-01</leafValues></_>
        <_>
          <internalNodes>
            0 -1 168 3.5431538708508015e-03</internalNodes>
          <leafValues>
            -1.3331472873687744e-01 1.9540826976299286e-01</leafValues></_>
        <_>
          <internalNodes>
            0 -1 29 -3.6750922445207834e-03</internalNodes>
          <leafValues>
            1.9352063536643982e-01 -1.3813443481922150e-01</leafValues></_>
        <_>
          <internalNodes>
            0 -1 15 7.9108439385890961e-03</internalNodes>
          <leafValues>
            -9.3105740845203400e-02 2.6404896378517151e-01</leafValues></_>
        <_>
          <internalNodes>
            0 -1 383 3.6358344368636608e-03</internalNodes>
          <leafValues>
            3.8160301744937897e-02 -5.6330013275146484e-01</leafValues></_>
        <_>
          <internalNodes>
            0 -1 220 4.2618566658347845e-04</internalNodes>
          <leafValues>
            -1.0946331918239594e-01 2.0549628138542175e-01</leafValues></_>
        <_>
          <internalNodes>
            0 -1 370 -1.0678170621395111e-01</internalNodes>
          <leafValues>
            -5.2269786596298218e-01 4.7795012593269348e-02</leafValues></_>
        <_>
          <internalNodes>
            0 -1 259 -8.9112427085638046e-03</internalNodes>
          <leafValues>
            2.4629519879817963e-01 -9.2439033091068268e-02</leafValues></_>
        <_>
          <internalNodes>
            0 -1 255 -1.2677500490099192e-03</internalNodes>
          <leafValues>
            2.0344720780849457e-01 -1.1265487968921661e-01</leafValues></_>
        <_>
          <internalNodes>
            0 -1 455 -1.3111617416143417e-02</internalNodes>
          <leafValues>
            -7.0810627937316895e-01 2.8281483799219131e-02</leafValues></_>
        <_>
          <internalNodes>
            0 -1 447 -7.8216620022431016e-04</internalNodes>
          <leafValues>
            1.8115334212779999e-01 -1.2344372272491455e-01</leafValues></_>
        <_>
          <internalNodes>
            0 -1 442 1.0562805691733956e-03</internalNodes>
          <leafValues>
            -1.1375077813863754e-01 2.2136165201663971e-01</leafValues></_>
        <_>
          <internalNodes>
            0 -1 74 -3.3408398739993572e-03</internalNodes>
          <leafValues>
            1.7972332239151001e-01 -1.1858831346035004e-01</leafValues></_>
        <_>
          <internalNodes>
            0 -1 80 -5.5875279940664768e-03</internalNodes>
          <leafValues>
            -4.3943053483963013e-01 7.0586048066616058e-02</leafValues></_>
        <_>
          <internalNodes>
            0 -1 13 -7.0578344166278839e-02</internalNodes>
          <leafValues>
            -3.4898743033409119e-01 5.2873898297548294e-02</leafValues></_>
        <_>
          <internalNodes>
            0 -1 85 2.0418590866029263e-03</internalNodes>
          <leafValues>
            -9.2380426824092865e-02 2.5412485003471375e-01</leafValues></_>
        <_>
          <internalNodes>
            0 -1 236 -1.0420016944408417e-02</internalNodes>
          <leafValues>
            -4.2727544903755188e-01 6.3149705529212952e-02</leafValues></_>
        <_>
          <internalNodes>
            0 -1 216 2.3812104482203722e-03</internalNodes>
          <leafValues>
            -1.0299311578273773e-01 2.2091811895370483e-01</leafValues></_>
        <_>
          <internalNodes>
            0 -1 422 -9.9033387377858162e-03</internalNodes>
          <leafValues>
            4.1731590032577515e-01 -5.8662995696067810e-02</leafValues></_>
        <_>
          <internalNodes>
            0 -1 177 -9.5056861639022827e-02</internalNodes>
          <leafValues>
            7.6695537567138672e-01 -2.3439558222889900e-02</leafValues></_>
        <_>
          <internalNodes>
            0 -1 477 -1.1710235849022865e-03</internalNodes>
          <leafValues>
            1.6229154169559479e-01 -1.3820742070674896e-01</leafValues></_>
        <_>
          <internalNodes>
            0 -1 279 6.9700941443443298e-02</internalNodes>
          <leafValues>
            3.6316547542810440e-02 -6.6787594556808472e-01</leafValues></_>
        <_>
          <internalNodes>
            0 -1 641 2.4877463001757860e-03</internalNodes>
          <leafValues>
            6.7202508449554443e-02 -3.2226935029029846e-01</leafValues></_>
        <_>
          <internalNodes>
            0 -1 416 7.8155379742383957e-04</internalNodes>
          <leafValues>
            -1.4734517037868500e-01 1.7027401924133301e-01</leafValues></_>
        <_>
          <internalNodes>
            0 -1 204 -6.9243047619238496e-05</internalNodes>
          <leafValues>
            1.8614290654659271e-01 -1.3979461789131165e-01</leafValues></_>
        <_>
          <internalNodes>
            0 -1 250 -4.1454462334513664e-03</internalNodes>
          <leafValues>
            1.7339722812175751e-01 -1.2909236550331116e-01</leafValues></_>
        <_>
          <internalNodes>
            0 -1 153 6.9450410082936287e-03</internalNodes>
          <leafValues>
            -4.8066023737192154e-02 3.7482061982154846e-01</leafValues></_>
        <_>
          <internalNodes>
            0 -1 367 -4.4644363224506378e-03</internalNodes>
          <leafValues>
            -7.5825130939483643e-01 3.0406236648559570e-02</leafValues></_>
        <_>
          <internalNodes>
            0 -1 601 9.2900480376556516e-04</internalNodes>
          <leafValues>
            8.3188205957412720e-02 -2.5720316171646118e-01</leafValues></_>
        <_>
          <internalNodes>
            0 -1 544 -3.2927833497524261e-02</internalNodes>
          <leafValues>
            2.8961354494094849e-01 -7.6559916138648987e-02</leafValues></_>
        <_>
          <internalNodes>
            0 -1 653 -4.8438897356390953e-03</internalNodes>
          <leafValues>
            -6.6874033212661743e-01 3.7703450769186020e-02</leafValues></_>
        <_>
          <internalNodes>
            0 -1 449 3.0689427512697875e-04</internalNodes>
          <leafValues>
            -1.0463660955429077e-01 2.0077461004257202e-01</leafValues></_>
        <_>
          <internalNodes>
            0 -1 438 1.2847997248172760e-02</internalNodes>
          <leafValues>
            1.4148220419883728e-01 -1.9514809548854828e-01</leafValues></_>
        <_>
          <internalNodes>
            0 -1 173 -2.3199528455734253e-02</internalNodes>
          <leafValues>
            7.5202172994613647e-01 -3.2236143946647644e-02</leafValues></_>
        <_>
          <internalNodes>
            0 -1 435 -7.6356300269253552e-05</internalNodes>
          <leafValues>
            1.7470411956310272e-01 -1.2047909945249557e-01</leafValues></_>
        <_>
          <internalNodes>
            0 -1 305 -1.0013203322887421e-01</internalNodes>
          <leafValues>
            6.4699345827102661e-01 -3.3830780535936356e-02</leafValues></_>
        <_>
          <internalNodes>
            0 -1 555 5.2825815510004759e-04</internalNodes>
          <leafValues>
            -1.2059473991394043e-01 1.6764317452907562e-01</leafValues></_>
        <_>
          <internalNodes>
            0 -1 468 3.5042734816670418e-03</internalNodes>
          <leafValues>
            -1.2669153511524200e-01 1.9621370732784271e-01</leafValues></_>
        <_>
          <internalNodes>
            0 -1 648 1.8668388947844505e-02</internalNodes>
          <leafValues>
            3.7776086479425430e-02 -5.4800593852996826e-01</leafValues></_>
        <_>
          <internalNodes>
            0 -1 550 5.0362493842840195e-02</internalNodes>
          <leafValues>
            -3.3648200333118439e-02 6.5292197465896606e-01</leafValues></_>
        <_>
          <internalNodes>
            0 -1 454 -7.5346782803535461e-02</internalNodes>
          <leafValues>
            2.6041930913925171e-01 -7.8236065804958344e-02</leafValues></_>
        <_>
          <internalNodes>
            0 -1 45 1.7656572163105011e-02</internalNodes>
          <leafValues>
            -3.2826609909534454e-02 6.3174653053283691e-01</leafValues></_>
        <_>
          <internalNodes>
            0 -1 524 -6.6276434808969498e-03</internalNodes>
          <leafValues>
            -6.0978949069976807e-01 4.1243661195039749e-02</leafValues></_>
        <_>
          <internalNodes>
            0 -1 91 2.9206532984972000e-02</internalNodes>
          <leafValues>
            -5.5758040398359299e-02 4.4106063246726990e-01</leafValues></_>
        <_>
          <internalNodes>
            0 -1 172 -1.2200146913528442e-02</internalNodes>
          <leafValues>
            -3.9365470409393311e-01 6.2029350548982620e-02</leafValues></_>
        <_>
          <internalNodes>
            0 -1 150 -1.1644763872027397e-03</internalNodes>
          <leafValues>
            1.7295396327972412e-01 -1.3622932136058807e-01</leafValues></_>
        <_>
          <internalNodes>
            0 -1 525 -1.7564033623784781e-03</internalNodes>
          <leafValues>
            2.4786411225795746e-01 -1.0169005393981934e-01</leafValues></_>
        <_>
          <internalNodes>
            0 -1 155 9.4557835836894810e-05</internalNodes>
          <leafValues>
            1.3068135082721710e-01 -1.7195749282836914e-01</leafValues></_>
        <_>
          <internalNodes>
            0 -1 108 -2.7224965393543243e-02</internalNodes>
          <leafValues>
            3.3063933253288269e-01 -6.8931929767131805e-02</leafValues></_>
        <_>
          <internalNodes>
            0 -1 115 1.4462366700172424e-02</internalNodes>
          <leafValues>
            3.9445914328098297e-02 -5.6239235401153564e-01</leafValues></_>
        <_>
          <internalNodes>
            0 -1 353 1.9982047379016876e-03</internalNodes>
          <leafValues>
            4.8468559980392456e-02 -4.2874869704246521e-01</leafValues></_>
        <_>
          <internalNodes>
            0 -1 597 -3.2619319390505552e-03</internalNodes>
          <leafValues>
            1.7845372855663300e-01 -1.1946552246809006e-01</leafValues></_>
        <_>
          <internalNodes>
            0 -1 20 7.1582701057195663e-03</internalNodes>
          <leafValues>
            -7.5367994606494904e-02 3.0560600757598877e-01</leafValues></_>
        <_>
          <internalNodes>
            0 -1 363 5.4824231192469597e-03</internalNodes>
          <leafValues>
            -9.4501912593841553e-02 2.3673176765441895e-01</leafValues></_>
        <_>
          <internalNodes>
            0 -1 346 -2.4337521754205227e-03</internalNodes>
          <leafValues>
            -4.7697764635086060e-01 4.7697864472866058e-02</leafValues></_>
        <_>
          <internalNodes>
            0 -1 237 -1.5011990442872047e-02</internalNodes>
          <leafValues>
            -4.5032981038093567e-01 4.9993202090263367e-02</leafValues></_>
        <_>
          <internalNodes>
            0 -1 568 7.0288083516061306e-03</internalNodes>
          <leafValues>
            -1.0507200658321381e-01 2.3226380348205566e-01</leafValues></_>
        <_>
          <internalNodes>
            0 -1 187 -1.6903068870306015e-02</internalNodes>
          <leafValues>
            9.7113794088363647e-01 -1.7453284934163094e-02</leafValues></_>
        <_>
          <internalNodes>
            0 -1 612 -3.4137489274144173e-03</internalNodes>
          <leafValues>
            -4.7577524185180664e-01 5.2907112985849380e-02</leafValues></_></weakClassifiers></_>
    <!-- stage 2 -->
    <_>
      <maxWeakCount>59</maxWeakCount>
      <stageThreshold>-5.3912460803985596e-01</stageThreshold>
      <weakClassifiers>
        <_>
          <internalNodes>
            0 -1 311 -4.4281901791691780e-03</internalNodes>
          <leafValues>
            6.1780107021331787e-01 2.3613595962524414e-01</leafValues></_>
        <_>
          <internalNodes>
            0 -1 414 -5.8820500969886780e-02</internalNodes>
          <leafValues>
            2.8018382191658020e-01 -1.0129495710134506e-01</leafValues></_>
        <_>
          <internalNodes>
            0 -1 67 1.3309533242136240e-03</internalNodes>
          <leafValues>
            -1.2551623582839966e-01 2.5163492560386658e-01</leafValues></_>
        <_>
          <internalNodes>
            0 -1 358 -9.7329670097678900e-04</internalNodes>
          <leafValues>
            2.0995113253593445e-01 -1.0241943597793579e-01</leafValues></_>
        <_>
          <internalNodes>
            0 -1 302 -5.9983674436807632e-03</internalNodes>
          <leafValues>
            -5.7856571674346924e-01 5.7194057852029800e-02</leafValues></_>
        <_>
          <internalNodes>
            0 -1 481 -3.2619468402117491e-04</internalNodes>
          <leafValues>
            1.9427020847797394e-01 -1.1916621029376984e-01</leafValues></_>
        <_>
          <internalNodes>
            0 -1 446 4.4468995183706284e-03</internalNodes>
          <leafValues>
            4.1935541667044163e-03 -8.3032846450805664e-01</leafValues></_>
        <_>
          <internalNodes>
            0 -1 43 -1.2614954262971878e-02</internalNodes>
          <leafValues>
            2.5112363696098328e-01 -8.9493378996849060e-02</leafValues></_>
        <_>
          <internalNodes>
            0 -1 52 -7.5807282701134682e-03</internalNodes>
          <leafValues>
            2.5199595093727112e-01 -9.8506689071655273e-02</leafValues></_>
        <_>
          <internalNodes>
            0 -1 394 1.3913277536630630e-02</internalNodes>
          <leafValues>
            5.8138556778430939e-02 -4.3198925256729126e-01</leafValues></_>
        <_>
          <internalNodes>
            0 -1 552 4.7283191233873367e-03</internalNodes>
          <leafValues>
            -9.6615381538867950e-02 2.1919065713882446e-01</leafValues></_>
        <_>
          <internalNodes>
            0 -1 453 -5.9400081634521484e-02</internalNodes>
          <leafValues>
            4.5840248465538025e-01 -5.4013840854167938e-02</leafValues></_>
        <_>
          <internalNodes>
            0 -1 463 -2.9862084193155169e-04</internalNodes>
          <leafValues>
            1.7247322201728821e-01 -1.3876338303089142e-01</leafValues></_>
        <_>
          <internalNodes>
            0 -1 167 -4.9856342375278473e-03</internalNodes>
          <leafValues>
            2.9163420200347900e-01 -7.0732526481151581e-02</leafValues></_>
        <_>
          <internalNodes>
            0 -1 199 -1.1400766670703888e-02</internalNodes>
          <leafValues>
            -5.4991006851196289e-01 4.3944869190454483e-02</leafValues></_>
        <_>
          <internalNodes>
            0 -1 56 -1.2335053645074368e-02</internalNodes>
          <leafValues>
            2.8723549842834473e-01 -7.7301695942878723e-02</leafValues></_>
        <_>
          <internalNodes>
            0 -1 331 -4.3898504227399826e-03</internalNodes>
          <leafValues>
            2.2334104776382446e-01 -1.0499870032072067e-01</leafValues></_>
        <_>
          <internalNodes>
            0 -1 622 -4.0402496233582497e-03</internalNodes>
          <leafValues>
            -7.1901136636734009e-01 3.5951409488916397e-02</leafValues></_>
        <_>
          <internalNodes>
            0 -1 564 2.5501321069896221e-03</internalNodes>
          <leafValues>
            -5.8628369122743607e-02 4.2256453633308411e-01</leafValues></_>
        <_>
          <internalNodes>
            0 -1 335 1.9798441790044308e-03</internalNodes>
          <leafValues>
            -9.2642463743686676e-02 2.4020248651504517e-01</leafValues></_>
        <_>
          <internalNodes>
            0 -1 266 -4.2230873368680477e-03</internalNodes>
          <leafValues>
            -4.4120553135871887e-01 5.3513258695602417e-02</leafValues></_>
        <_>
          <internalNodes>
            0 -1 132 -2.3836284875869751e-01</internalNodes>
          <leafValues>
            4.9471074342727661e-01 -5.1628060638904572e-02</leafValues></_>
        <_>
          <internalNodes>
            0 -1 38 1.4106761664152145e-02</internalNodes>
          <leafValues>
            6.1668988317251205e-02 -4.0479484200477600e-01</leafValues></_>
        <_>
          <internalNodes>
            0 -1 33 1.8526570871472359e-02</internalNodes>
          <leafValues>
            5.1167365163564682e-02 -4.3311572074890137e-01</leafValues></_>
        <_>
          <internalNodes>
            0 -1 249 3.3657629042863846e-02</internalNodes>
          <leafValues>
            -3.6403480917215347e-02 6.9649070501327515e-01</leafValues></_>
        <_>
          <internalNodes>
            0 -1 3 1.2115948833525181e-02</internalNodes>
          <leafValues>
            -8.9894875884056091e-02 2.5671511888504028e-01</leafValues></_>
        <_>
          <internalNodes>
            0 -1 2 -1.0386865586042404e-01</internalNodes>
          <leafValues>
            -9.0586978197097778e-01 3.0935011804103851e-02</leafValues></_>
        <_>
          <internalNodes>
            0 -1 573 3.1295451335608959e-03</internalNodes>
          <leafValues>
            -8.6846753954887390e-02 2.8116467595100403e-01</leafValues></_>
        <_>
          <internalNodes>
            0 -1 513 -4.8961471766233444e-03</internalNodes>
          <leafValues>
            2.4583822488784790e-01 -8.5497245192527771e-02</leafValues></_>
        <_>
          <internalNodes>
            0 -1 105 3.1695430516265333e-04</internalNodes>
          <leafValues>
            1.0839131474494934e-01 -2.0470279455184937e-01</leafValues></_>
        <_>
          <internalNodes>
            0 -1 107 7.7712973579764366e-03</internalNodes>
          <leafValues>
            8.1883750855922699e-02 -2.9406625032424927e-01</leafValues></_>
        <_>
          <internalNodes>
            0 -1 637 3.0121129006147385e-02</internalNodes>
          <leafValues>
            -4.1423738002777100e-02 5.6606996059417725e-01</leafValues></_>
        <_>
          <internalNodes>
            0 -1 641 2.7558258734643459e-03</internalNodes>
          <leafValues>
            6.6264189779758453e-02 -3.4943282604217529e-01</leafValues></_>
        <_>
          <internalNodes>
            0 -1 79 6.9020977243781090e-03</internalNodes>
          <leafValues>
            -1.0340196639299393e-01 2.0483255386352539e-01</leafValues></_>
        <_>
          <internalNodes>
            0 -1 620 6.7081307061016560e-03</internalNodes>
          <leafValues>
            4.7359418123960495e-02 -4.6045672893524170e-01</leafValues></_>
        <_>
          <internalNodes>
            0 -1 599 -1.5211421996355057e-02</internalNodes>
          <leafValues>
            -6.4449739456176758e-01 3.2225191593170166e-02</leafValues></_>
        <_>
          <internalNodes>
            0 -1 499 -1.4894088730216026e-02</internalNodes>
          <leafValues>
            4.0921002626419067e-01 -6.1458624899387360e-02</leafValues></_>
        <_>
          <internalNodes>
            0 -1 545 7.1829120861366391e-04</internalNodes>
          <leafValues>
            -9.2979647219181061e-02 2.4295967817306519e-01</leafValues></_>
        <_>
          <internalNodes>
            0 -1 430 1.0952131822705269e-02</internalNodes>
          <leafValues>
            3.3617481589317322e-02 -6.8665021657943726e-01</leafValues></_>
        <_>
          <internalNodes>
            0 -1 527 -1.3361049816012383e-02</internalNodes>
          <leafValues>
            -5.9239089488983154e-01 3.3728469163179398e-02</leafValues></_>
        <_>
          <internalNodes>
            0 -1 77 7.2934934869408607e-03</internalNodes>
          <leafValues>
            -8.1451311707496643e-02 2.9423210024833679e-01</leafValues></_>
        <_>
          <internalNodes>
            0 -1 322 -4.5567164197564125e-03</internalNodes>
          <leafValues>
            2.7957764267921448e-01 -9.8574928939342499e-02</leafValues></_>
        <_>
          <internalNodes>
            0 -1 144 -1.8612271174788475e-02</internalNodes>
          <leafValues>
            -3.9575353264808655e-01 6.0681320726871490e-02</leafValues></_>
        <_>
          <internalNodes>
            0 -1 147 1.3278955593705177e-02</internalNodes>
          <leafValues>
            -4.3483119457960129e-02 5.3025394678115845e-01</leafValues></_>
        <_>
          <internalNodes>
            0 -1 590 -5.7257432490587234e-03</internalNodes>
          <leafValues>
            -8.7722367048263550e-01 2.9516907408833504e-02</leafValues></_>
        <_>
          <internalNodes>
            0 -1 212 4.7734342515468597e-03</internalNodes>
          <leafValues>
            2.1088646724820137e-02 -7.9402649402618408e-01</leafValues></_>
        <_>
          <internalNodes>
            0 -1 93 -1.7650954425334930e-02</internalNodes>
          <leafValues>
            4.3239685893058777e-01 -6.0597270727157593e-02</leafValues></_>
        <_>
          <internalNodes>
            0 -1 413 3.1157187186181545e-03</internalNodes>
          <leafValues>
            4.3721068650484085e-02 -5.8711433410644531e-01</leafValues></_>
        <_>
          <internalNodes>
            0 -1 518 9.1854166239500046e-03</internalNodes>
          <leafValues>
            -7.1674659848213196e-02 3.5274252295494080e-01</leafValues></_>
        <_>
          <internalNodes>
            0 -1 110 3.8760341703891754e-04</internalNodes>
          <leafValues>
            -1.1625063419342041e-01 1.9705422222614288e-01</leafValues></_>
        <_>
          <internalNodes>
            0 -1 114 6.0457661747932434e-03</internalNodes>
          <leafValues>
            6.6489815711975098e-02 -3.5785678029060364e-01</leafValues></_>
        <_>
          <internalNodes>
            0 -1 598 1.5845209418330342e-04</internalNodes>
          <leafValues>
            1.5542902052402496e-01 -1.5839006006717682e-01</leafValues></_>
        <_>
          <internalNodes>
            0 -1 136 3.9228461682796478e-02</internalNodes>
          <leafValues>
            -3.8541864603757858e-02 6.8455618619918823e-01</leafValues></_>
        <_>
          <internalNodes>
            0 -1 112 -2.4282146245241165e-02</internalNodes>
          <leafValues>
            3.2915395498275757e-01 -6.2512703239917755e-02</leafValues></_>
        <_>
          <internalNodes>
            0 -1 342 -2.4324951693415642e-02</internalNodes>
          <leafValues>
            4.8566362261772156e-01 -5.1174800843000412e-02</leafValues></_>
        <_>
          <internalNodes>
            0 -1 428 -9.7073204815387726e-03</internalNodes>
          <leafValues>
            -5.3107249736785889e-01 5.0976879894733429e-02</leafValues></_>
        <_>
          <internalNodes>
            0 -1 336 3.5433538258075714e-02</internalNodes>
          <leafValues>
            2.9161347076296806e-02 -7.0083057880401611e-01</leafValues></_>
        <_>
          <internalNodes>
            0 -1 611 1.7749742255546153e-05</internalNodes>
          <leafValues>
            -1.4644774794578552e-01 1.6104236245155334e-01</leafValues></_>
        <_>
          <internalNodes>
            0 -1 385 -7.6327905058860779e-02</internalNodes>
          <leafValues>
            9.6130937337875366e-01 -2.3005971685051918e-02</leafValues></_></weakClassifiers></_>
    <!-- stage 3 -->
    <_>
      <maxWeakCount>68</maxWeakCount>
      <stageThreshold>-4.7296577692031860e-01</stageThreshold>
      <weakClassifiers>
        <_>
          <internalNodes>
            0 -1 401 -6.5634343773126602e-03</internalNodes>
          <leafValues>
            5.5555558204650879e-01 2.5114154815673828e-01</leafValues></_>
        <_>
          <internalNodes>
            0 -1 541 1.5960473567247391e-02</internalNodes>
          <leafValues>
            -4.9021959304809570e-02 3.3931320905685425e-01</leafValues></_>
        <_>
          <internalNodes>
            0 -1 11 -4.4911751151084900e-01</internalNodes>
          <leafValues>
            6.2232607603073120e-01 -5.1261451095342636e-02</leafValues></_>
        <_>
          <internalNodes>
            0 -1 375 1.1255343258380890e-01</internalNodes>
          <leafValues>
            -6.7010022699832916e-02 4.3352639675140381e-01</leafValues></_>
        <_>
          <internalNodes>
            0 -1 533 2.6723667979240417e-03</internalNodes>
          <leafValues>
            -4.8889204859733582e-02 4.3469339609146118e-01</leafValues></_>
        <_>
          <internalNodes>
            0 -1 295 7.2565055452287197e-03</internalNodes>
          <leafValues>
            -7.4285700917243958e-02 2.8021702170372009e-01</leafValues></_>
        <_>
          <internalNodes>
            0 -1 534 -3.0599888414144516e-03</internalNodes>
          <leafValues>
            -5.0306719541549683e-01 3.8892865180969238e-02</leafValues></_>
        <_>
          <internalNodes>
            0 -1 586 -6.2845530919730663e-04</internalNodes>
          <leafValues>
            2.0030990242958069e-01 -9.6500515937805176e-02</leafValues></_>
        <_>
          <internalNodes>
            0 -1 246 -3.8901664316654205e-02</internalNodes>
          <leafValues>
            3.5215198993682861e-01 -6.3558571040630341e-02</leafValues></_>
        <_>
          <internalNodes>
            0 -1 23 -2.2898390889167786e-03</internalNodes>
          <leafValues>
            2.3354084789752960e-01 -8.9386686682701111e-02</leafValues></_>
        <_>
          <internalNodes>
            0 -1 195 -3.8169706240296364e-03</internalNodes>
          <leafValues>
            -6.4558142423629761e-01 3.1960405409336090e-02</leafValues></_>
        <_>
          <internalNodes>
            0 -1 581 1.3934381306171417e-02</internalNodes>
          <leafValues>
            -2.7743471786379814e-02 7.2376108169555664e-01</leafValues></_>
        <_>
          <internalNodes>
            0 -1 592 -1.7144512385129929e-02</internalNodes>
          <leafValues>
            -3.5768336057662964e-01 6.4594618976116180e-02</leafValues></_>
        <_>
          <internalNodes>
            0 -1 96 4.8918943852186203e-02</internalNodes>
          <leafValues>
            -2.9949914664030075e-02 7.1508753299713135e-01</leafValues></_>
        <_>
          <internalNodes>
            0 -1 288 5.3143028169870377e-02</internalNodes>
          <leafValues>
            -3.3861342817544937e-02 5.1289486885070801e-01</leafValues></_>
        <_>
          <internalNodes>
            0 -1 308 -2.4352397304028273e-03</internalNodes>
          <leafValues>
            2.0191851258277893e-01 -1.0459243506193161e-01</leafValues></_>
        <_>
          <internalNodes>
            0 -1 72 -7.0308181457221508e-03</internalNodes>
          <leafValues>
            -7.1790623664855957e-01 3.1881485134363174e-02</leafValues></_>
        <_>
          <internalNodes>
            0 -1 644 -4.7829719260334969e-03</internalNodes>
          <leafValues>
            -4.2582616209983826e-01 4.1802324354648590e-02</leafValues></_>
        <_>
          <internalNodes>
            0 -1 547 5.8143548667430878e-03</internalNodes>
          <leafValues>
            -7.0092648267745972e-02 3.0528756976127625e-01</leafValues></_>
        <_>
          <internalNodes>
            0 -1 517 4.5679893810302019e-04</internalNodes>
          <leafValues>
            1.2290328741073608e-01 -1.5805570781230927e-01</leafValues></_>
        <_>
          <internalNodes>
            0 -1 57 3.3720150589942932e-02</internalNodes>
          <leafValues>
            -3.2852433621883392e-02 5.9985613822937012e-01</leafValues></_>
        <_>
          <internalNodes>
            0 -1 565 3.7287024315446615e-03</internalNodes>
          <leafValues>
            3.4392189234495163e-02 -6.6803407669067383e-01</leafValues></_>
        <_>
          <internalNodes>
            0 -1 244 5.0075124949216843e-02</internalNodes>
          <leafValues>
            -3.6743633449077606e-02 5.1562988758087158e-01</leafValues></_>
        <_>
          <internalNodes>
            0 -1 313 8.5813641548156738e-02</internalNodes>
          <leafValues>
            3.4201551228761673e-02 -6.2629622220993042e-01</leafValues></_>
        <_>
          <internalNodes>
            0 -1 372 3.9892576634883881e-02</internalNodes>
          <leafValues>
            -7.4928387999534607e-02 2.4983091652393341e-01</leafValues></_>
        <_>
          <internalNodes>
            0 -1 588 5.9967428445816040e-02</internalNodes>
          <leafValues>
            -3.2607629895210266e-02 5.8273732662200928e-01</leafValues></_>
        <_>
          <internalNodes>
            0 -1 9 -8.2642361521720886e-02</internalNodes>
          <leafValues>
            3.2125580310821533e-01 -5.7223193347454071e-02</leafValues></_>
        <_>
          <internalNodes>
            0 -1 76 -1.5185269527137280e-02</internalNodes>
          <leafValues>
            -6.0213702917098999e-01 3.4808974713087082e-02</leafValues></_>
        <_>
          <internalNodes>
            0 -1 512 2.0863730460405350e-03</internalNodes>
          <leafValues>
            -6.4038783311843872e-02 2.8284329175949097e-01</leafValues></_>
        <_>
          <internalNodes>
            0 -1 54 -6.7915320396423340e-03</internalNodes>
          <leafValues>
            -3.4616467356681824e-01 5.7294361293315887e-02</leafValues></_>
        <_>
          <internalNodes>
            0 -1 382 -2.1726503968238831e-02</internalNodes>
          <leafValues>
            3.4690791368484497e-01 -5.3173501044511795e-02</leafValues></_>
        <_>
          <internalNodes>
            0 -1 626 -2.8589018620550632e-03</internalNodes>
          <leafValues>
            1.8154101073741913e-01 -9.8758362233638763e-02</leafValues></_>
        <_>
          <internalNodes>
            0 -1 628 4.5562665909528732e-02</internalNodes>
          <leafValues>
            -1.9569600000977516e-02 7.9395645856857300e-01</leafValues></_>
        <_>
          <internalNodes>
            0 -1 121 2.2992005571722984e-02</internalNodes>
          <leafValues>
            -1.5160370618104935e-02 8.6364728212356567e-01</leafValues></_>
        <_>
          <internalNodes>
            0 -1 490 3.2554510980844498e-03</internalNodes>
          <leafValues>
            8.5061587393283844e-02 -2.3351688683032990e-01</leafValues></_>
        <_>
          <internalNodes>
            0 -1 618 -1.2097398750483990e-02</internalNodes>
          <leafValues>
            2.6562532782554626e-01 -7.3457382619380951e-02</leafValues></_>
        <_>
          <internalNodes>
            0 -1 511 2.6385022327303886e-02</internalNodes>
          <leafValues>
            -4.6897325664758682e-02 4.0886089205741882e-01</leafValues></_>
        <_>
          <internalNodes>
            0 -1 84 -6.4893029630184174e-03</internalNodes>
          <leafValues>
            3.4527724981307983e-01 -5.2887748926877975e-02</leafValues></_>
        <_>
          <internalNodes>
            0 -1 21 -9.6674382686614990e-02</internalNodes>
          <leafValues>
            7.8786844015121460e-01 -2.4220522493124008e-02</leafValues></_>
        <_>
          <internalNodes>
            0 -1 6 1.0657547973096371e-02</internalNodes>
          <leafValues>
            3.5073820501565933e-02 -7.0748257637023926e-01</leafValues></_>
        <_>
          <internalNodes>
            0 -1 391 -2.6191582437604666e-03</internalNodes>
          <leafValues>
            4.3052348494529724e-01 -5.1662102341651917e-02</leafValues></_>
        <_>
          <internalNodes>
            0 -1 474 1.5380699187517166e-02</internalNodes>
          <leafValues>
            1.0979628562927246e-01 -1.8501619994640350e-01</leafValues></_>
        <_>
          <internalNodes>
            0 -1 398 -6.1442889273166656e-02</internalNodes>
          <leafValues>
            -7.5137561559677124e-01 2.4191861972212791e-02</leafValues></_>
        <_>
          <internalNodes>
            0 -1 654 -3.0950177460908890e-04</internalNodes>
          <leafValues>
            1.8040448427200317e-01 -1.1081168800592422e-01</leafValues></_>
        <_>
          <internalNodes>
            0 -1 50 -1.7555817961692810e-02</internalNodes>
          <leafValues>
            -2.4773617088794708e-01 8.0036878585815430e-02</leafValues></_>
        <_>
          <internalNodes>
            0 -1 81 1.4540684409439564e-02</internalNodes>
          <leafValues>
            5.9148304164409637e-02 -3.3247974514961243e-01</leafValues></_>
        <_>
          <internalNodes>
            0 -1 327 -8.1549594178795815e-03</internalNodes>
          <leafValues>
            -1. 2.3153457790613174e-02</leafValues></_>
        <_>
          <internalNodes>
            0 -1 152 3.4424485638737679e-03</internalNodes>
          <leafValues>
            9.4603195786476135e-02 -2.1901805698871613e-01</leafValues></_>
        <_>
          <internalNodes>
            0 -1 330 -4.2303100228309631e-02</internalNodes>
          <leafValues>
            5.4393166303634644e-01 -3.7741608917713165e-02</leafValues></_>
        <_>
          <internalNodes>
            0 -1 222 -3.8301579654216766e-02</internalNodes>
          <leafValues>
            8.3918750286102295e-01 -1.9299028441309929e-02</leafValues></_>
        <_>
          <internalNodes>
            0 -1 183 -1.2301333248615265e-02</internalNodes>
          <leafValues>
            5.2801150083541870e-01 -3.1363818794488907e-02</leafValues></_>
        <_>
          <internalNodes>
            0 -1 310 1.8001165986061096e-01</internalNodes>
          <leafValues>
            -1.8304364755749702e-02 8.7885951995849609e-01</leafValues></_>
        <_>
          <internalNodes>
            0 -1 320 -2.7099547907710075e-02</internalNodes>
          <leafValues>
            -1.8572027981281281e-01 1.0857472568750381e-01</leafValues></_>
        <_>
          <internalNodes>
            0 -1 464 -8.2141011953353882e-03</internalNodes>
          <leafValues>
            2.2941283881664276e-01 -1.0382862389087677e-01</leafValues></_>
        <_>
          <internalNodes>
            0 -1 248 -3.8859783671796322e-03</internalNodes>
          <leafValues>
            2.9913339018821716e-01 -5.8490645140409470e-02</leafValues></_>
        <_>
          <internalNodes>
            0 -1 328 -6.9708446972072124e-04</internalNodes>
          <leafValues>
            -1.5106771886348724e-01 1.3170541822910309e-01</leafValues></_>
        <_>
          <internalNodes>
            0 -1 326 7.4219884118065238e-04</internalNodes>
          <leafValues>
            -1.5366837382316589e-01 1.7486035823822021e-01</leafValues></_>
        <_>
          <internalNodes>
            0 -1 354 -6.1240866780281067e-03</internalNodes>
          <leafValues>
            2.5545439124107361e-01 -7.6620310544967651e-02</leafValues></_>
        <_>
          <internalNodes>
            0 -1 373 -6.2414619605988264e-04</internalNodes>
          <leafValues>
            -2.3117506504058838e-01 9.8523594439029694e-02</leafValues></_>
        <_>
          <internalNodes>
            0 -1 200 2.1896280348300934e-02</internalNodes>
          <leafValues>
            2.5719761848449707e-02 -8.1016963720321655e-01</leafValues></_>
        <_>
          <internalNodes>
            0 -1 371 -3.5530980676412582e-03</internalNodes>
          <leafValues>
            2.0586632192134857e-01 -9.7869373857975006e-02</leafValues></_>
        <_>
          <internalNodes>
            0 -1 636 -3.9097899571061134e-03</internalNodes>
          <leafValues>
            -3.8297528028488159e-01 5.3757112473249435e-02</leafValues></_>
        <_>
          <internalNodes>
            0 -1 360 2.8271708637475967e-02</internalNodes>
          <leafValues>
            -4.0447864681482315e-02 5.4753988981246948e-01</leafValues></_>
        <_>
          <internalNodes>
            0 -1 356 -5.2983043715357780e-03</internalNodes>
          <leafValues>
            -1.9372163712978363e-01 1.1434681713581085e-01</leafValues></_>
        <_>
          <internalNodes>
            0 -1 607 3.7715206854045391e-03</internalNodes>
          <leafValues>
            -1.1083799600601196e-01 1.8746568262577057e-01</leafValues></_>
        <_>
          <internalNodes>
            0 -1 494 4.0445625782012939e-02</internalNodes>
          <leafValues>
            -4.2146626859903336e-02 4.9962791800498962e-01</leafValues></_>
        <_>
          <internalNodes>
            0 -1 594 2.6775281876325607e-03</internalNodes>
          <leafValues>
            -7.2423264384269714e-02 2.5514242053031921e-01</leafValues></_>
        <_>
          <internalNodes>
            0 -1 652 -4.3137604370713234e-03</internalNodes>
          <leafValues>
            -8.1429743766784668e-01 2.6438623666763306e-02</leafValues></_></weakClassifiers></_>
    <!-- stage 4 -->
    <_>
      <maxWeakCount>61</maxWeakCount>
      <stageThreshold>-4.0324020385742188e-01</stageThreshold>
      <weakClassifiers>
        <_>
          <internalNodes>
            0 -1 440 -1.0677788406610489e-02</internalNodes>
          <leafValues>
            -5.2941179275512695e-01 3.5334241390228271e-01</leafValues></_>
        <_>
          <internalNodes>
            0 -1 7 -1.8169987946748734e-02</internalNodes>
          <leafValues>
            7.4702358245849609e-01 -4.9913669936358929e-03</leafValues></_>
        <_>
          <internalNodes>
            0 -1 386 -5.4454848170280457e-02</internalNodes>
          <leafValues>
            4.4179219007492065e-01 -6.1726178973913193e-02</leafValues></_>
        <_>
          <internalNodes>
            0 -1 180 2.6804305613040924e-02</internalNodes>
          <leafValues>
            -9.6041537821292877e-02 3.0905747413635254e-01</leafValues></_>
        <_>
          <internalNodes>
            0 -1 18 -5.4769623093307018e-03</internalNodes>
          <leafValues>
            2.1595789492130280e-01 -9.2735283076763153e-02</leafValues></_>
        <_>
          <internalNodes>
            0 -1 164 1.1588878184556961e-01</internalNodes>
          <leafValues>
            -7.6024062931537628e-02 3.4713536500930786e-01</leafValues></_>
        <_>
          <internalNodes>
            0 -1 417 -1.8007665639743209e-03</internalNodes>
          <leafValues>
            3.9262998104095459e-01 -5.9098586440086365e-02</leafValues></_>
        <_>
          <internalNodes>
            0 -1 539 -3.8022315129637718e-03</internalNodes>
          <leafValues>
            -2.8490635752677917e-01 7.8607238829135895e-02</leafValues></_>
        <_>
          <internalNodes>
            0 -1 178 1.7779428511857986e-02</internalNodes>
          <leafValues>
            -5.6818149983882904e-02 4.4413897395133972e-01</leafValues></_>
        <_>
          <internalNodes>
            0 -1 473 2.5742396246641874e-03</internalNodes>
          <leafValues>
            -6.9622322916984558e-02 2.7704852819442749e-01</leafValues></_>
        <_>
          <internalNodes>
            0 -1 264 4.4065481051802635e-03</internalNodes>
          <leafValues>
            -5.6299488991498947e-02 3.7468180060386658e-01</leafValues></_>
        <_>
          <internalNodes>
            0 -1 332 -7.8918104991316795e-03</internalNodes>
          <leafValues>
            -7.4911564588546753e-01 3.0398568138480186e-02</leafValues></_>
        <_>
          <internalNodes>
            0 -1 62 3.8240629434585571e-01</internalNodes>
          <leafValues>
            -2.2922357544302940e-02 1.</leafValues></_>
        <_>
          <internalNodes>
            0 -1 366 -4.7966832062229514e-04</internalNodes>
          <leafValues>
            2.2540616989135742e-01 -8.6959086358547211e-02</leafValues></_>
        <_>
          <internalNodes>
            0 -1 206 1.4268866507336497e-03</internalNodes>
          <leafValues>
            -1.0605617612600327e-01 1.9475880265235901e-01</leafValues></_>
        <_>
          <internalNodes>
            0 -1 615 -5.7192007079720497e-03</internalNodes>
          <leafValues>
            -7.7113997936248779e-01 2.5087758898735046e-02</leafValues></_>
        <_>
          <internalNodes>
            0 -1 616 -2.6124203577637672e-03</internalNodes>
          <leafValues>
            2.5008535385131836e-01 -1.0526095330715179e-01</leafValues></_>
        <_>
          <internalNodes>
            0 -1 504 1.4057451859116554e-02</internalNodes>
          <leafValues>
            -8.3583563566207886e-02 2.8203895688056946e-01</leafValues></_>
        <_>
          <internalNodes>
            0 -1 506 8.9372100774198771e-04</internalNodes>
          <leafValues>
            8.9730285108089447e-02 -2.4280485510826111e-01</leafValues></_>
        <_>
          <internalNodes>
            0 -1 399 1.7705973237752914e-02</internalNodes>
          <leafValues>
            8.2936383783817291e-02 -3.2469466328620911e-01</leafValues></_>
        <_>
          <internalNodes>
            0 -1 397 -2.9012181330472231e-03</internalNodes>
          <leafValues>
            1.9300077855587006e-01 -1.2868116796016693e-01</leafValues></_>
        <_>
          <internalNodes>
            0 -1 51 -8.1267133355140686e-03</internalNodes>
          <leafValues>
            -2.6624634861946106e-01 7.7465035021305084e-02</leafValues></_>
        <_>
          <internalNodes>
            0 -1 196 -7.3851319029927254e-04</internalNodes>
          <leafValues>
            -1.5711791813373566e-01 1.2292066216468811e-01</leafValues></_>
        <_>
          <internalNodes>
            0 -1 100 1.1845653876662254e-02</internalNodes>
          <leafValues>
            -7.6206825673580170e-02 2.9205870628356934e-01</leafValues></_>
        <_>
          <internalNodes>
            0 -1 46 -1.5135446563363075e-02</internalNodes>
          <leafValues>
            3.1204053759574890e-01 -6.4670510590076447e-02</leafValues></_>
        <_>
          <internalNodes>
            0 -1 163 9.8725501447916031e-04</internalNodes>
          <leafValues>
            1.0617022216320038e-01 -2.0900043845176697e-01</leafValues></_>
        <_>
          <internalNodes>
            0 -1 381 1.0971201956272125e-01</internalNodes>
          <leafValues>
            -3.0858395621180534e-02 6.5670710802078247e-01</leafValues></_>
        <_>
          <internalNodes>
            0 -1 388 -1.7799517139792442e-02</internalNodes>
          <leafValues>
            -6.0263597965240479e-01 4.1631828993558884e-02</leafValues></_>
        <_>
          <internalNodes>
            0 -1 261 3.7868052721023560e-02</internalNodes>
          <leafValues>
            -3.8908019661903381e-02 5.5002099275588989e-01</leafValues></_>
        <_>
          <internalNodes>
            0 -1 240 -3.4580887295305729e-03</internalNodes>
          <leafValues>
            -3.5806477069854736e-01 6.3165664672851562e-02</leafValues></_>
        <_>
          <internalNodes>
            0 -1 271 1.4296978712081909e-02</internalNodes>
          <leafValues>
            -6.0824692249298096e-02 3.2520627975463867e-01</leafValues></_>
        <_>
          <internalNodes>
            0 -1 493 -1.4258295297622681e-02</internalNodes>
          <leafValues>
            2.2277568280696869e-01 -8.3300359547138214e-02</leafValues></_>
        <_>
          <internalNodes>
            0 -1 487 9.0417340397834778e-02</internalNodes>
          <leafValues>
            -2.2632658481597900e-02 9.5035171508789062e-01</leafValues></_>
        <_>
          <internalNodes>
            0 -1 32 -3.9516594260931015e-02</internalNodes>
          <leafValues>
            3.8266158103942871e-01 -4.6432111412286758e-02</leafValues></_>
        <_>
          <internalNodes>
            0 -1 384 1.9020944833755493e-02</internalNodes>
          <leafValues>
            -8.0487497150897980e-02 2.7449160814285278e-01</leafValues></_>
        <_>
          <internalNodes>
            0 -1 156 6.8618762306869030e-03</internalNodes>
          <leafValues>
            -1.2356761097908020e-01 1.5697498619556427e-01</leafValues></_>
        <_>
          <internalNodes>
            0 -1 135 7.7106812968850136e-03</internalNodes>
          <leafValues>
            3.0232543125748634e-02 -7.4812680482864380e-01</leafValues></_>
        <_>
          <internalNodes>
            0 -1 17 1.1298765428364277e-02</internalNodes>
          <leafValues>
            -6.4038567245006561e-02 3.3560779690742493e-01</leafValues></_>
        <_>
          <internalNodes>
            0 -1 520 -5.1793940365314484e-02</internalNodes>
          <leafValues>
            -3.6173200607299805e-01 5.5176783353090286e-02</leafValues></_>
        <_>
          <internalNodes>
            0 -1 542 5.2902176976203918e-03</internalNodes>
          <leafValues>
            3.6532785743474960e-02 -4.9697238206863403e-01</leafValues></_>
        <_>
          <internalNodes>
            0 -1 315 1.3158163987100124e-02</internalNodes>
          <leafValues>
            -5.6064754724502563e-02 3.6708310246467590e-01</leafValues></_>
        <_>
          <internalNodes>
            0 -1 270 3.1017836183309555e-02</internalNodes>
          <leafValues>
            3.3839996904134750e-02 -6.6504812240600586e-01</leafValues></_>
        <_>
          <internalNodes>
            0 -1 451 4.3653268949128687e-04</internalNodes>
          <leafValues>
            -1.0564392060041428e-01 2.0932860672473907e-01</leafValues></_>
        <_>
          <internalNodes>
            0 -1 307 -1.4175416901707649e-02</internalNodes>
          <leafValues>
            -5.5820590257644653e-01 3.8895484060049057e-02</leafValues></_>
        <_>
          <internalNodes>
            0 -1 467 3.8972976617515087e-03</internalNodes>
          <leafValues>
            5.0025399774312973e-02 -3.7120416760444641e-01</leafValues></_>
        <_>
          <internalNodes>
            0 -1 268 -3.8450057618319988e-03</internalNodes>
          <leafValues>
            -5.4242455959320068e-01 3.4642715007066727e-02</leafValues></_>
        <_>
          <internalNodes>
            0 -1 60 7.0443172007799149e-03</internalNodes>
          <leafValues>
            -5.1873050630092621e-02 4.1922971606254578e-01</leafValues></_>
        <_>
          <internalNodes>
            0 -1 587 -4.4338192790746689e-02</internalNodes>
          <leafValues>
            -3.3383339643478394e-01 6.3782900571823120e-02</leafValues></_>
        <_>
          <internalNodes>
            0 -1 70 -1.1370794475078583e-01</internalNodes>
          <leafValues>
            -6.9354850053787231e-01 3.0075846239924431e-02</leafValues></_>
        <_>
          <internalNodes>
            0 -1 280 -4.6593598090112209e-03</internalNodes>
          <leafValues>
            -8.3099448680877686e-01 2.1617751568555832e-02</leafValues></_>
        <_>
          <internalNodes>
            0 -1 444 4.5101463794708252e-02</internalNodes>
          <leafValues>
            2.8503725305199623e-02 -5.9420591592788696e-01</leafValues></_>
        <_>
          <internalNodes>
            0 -1 333 -1.2442187871783972e-03</internalNodes>
          <leafValues>
            2.5271469354629517e-01 -7.7942125499248505e-02</leafValues></_>
        <_>
          <internalNodes>
            0 -1 609 3.5595791414380074e-03</internalNodes>
          <leafValues>
            6.4886622130870819e-02 -3.0220609903335571e-01</leafValues></_>
        <_>
          <internalNodes>
            0 -1 230 -6.6503278911113739e-02</internalNodes>
          <leafValues>
            4.8998865485191345e-01 -4.2373396456241608e-02</leafValues></_>
        <_>
          <internalNodes>
            0 -1 99 6.2736785039305687e-03</internalNodes>
          <leafValues>
            3.8914661854505539e-02 -6.2239527702331543e-01</leafValues></_>
        <_>
          <internalNodes>
            0 -1 8 9.7181592136621475e-03</internalNodes>
          <leafValues>
            -1.0914034396409988e-01 1.9927500188350677e-01</leafValues></_>
        <_>
          <internalNodes>
            0 -1 133 -1.1320710473228246e-04</internalNodes>
          <leafValues>
            1.7806227505207062e-01 -1.2680608034133911e-01</leafValues></_>
        <_>
          <internalNodes>
            0 -1 88 -5.0044907256960869e-03</internalNodes>
          <leafValues>
            5.4876482486724854e-01 -3.5767659544944763e-02</leafValues></_>
        <_>
          <internalNodes>
            0 -1 25 -1.1919063329696655e-01</internalNodes>
          <leafValues>
            -6.1546814441680908e-01 3.7799037992954254e-02</leafValues></_>
        <_>
          <internalNodes>
            0 -1 213 -8.0806389451026917e-02</internalNodes>
          <leafValues>
            -5.5443412065505981e-01 3.6004193127155304e-02</leafValues></_>
        <_>
          <internalNodes>
            0 -1 571 1.8406335264444351e-02</internalNodes>
          <leafValues>
            -4.0762729942798615e-02 5.6418031454086304e-01</leafValues></_></weakClassifiers></_>
    <!-- stage 5 -->
    <_>
      <maxWeakCount>73</maxWeakCount>
      <stageThreshold>-5.3099167346954346e-01</stageThreshold>
      <weakClassifiers>
        <_>
          <internalNodes>
            0 -1 480 -4.1672430932521820e-02</internalNodes>
          <leafValues>
            5.6403267383575439e-01 2.5860548019409180e-01</leafValues></_>
        <_>
          <internalNodes>
            0 -1 436 1.1541244573891163e-02</internalNodes>
          <leafValues>
            1.0093583911657333e-01 -2.4344383180141449e-01</leafValues></_>
        <_>
          <internalNodes>
            0 -1 256 2.2237349301576614e-02</internalNodes>
          <leafValues>
            -7.2730779647827148e-02 2.7562299370765686e-01</leafValues></_>
        <_>
          <internalNodes>
            0 -1 30 3.4779191017150879e-02</internalNodes>
          <leafValues>
            -8.4795393049716949e-02 2.6770865917205811e-01</leafValues></_>
        <_>
          <internalNodes>
            0 -1 497 3.1487643718719482e-02</internalNodes>
          <leafValues>
            -6.0971472412347794e-02 4.8926046490669250e-01</leafValues></_>
        <_>
          <internalNodes>
            0 -1 323 -8.3950320258736610e-03</internalNodes>
          <leafValues>
            -8.8472318649291992e-01 1.0936465114355087e-02</leafValues></_>
        <_>
          <internalNodes>
            0 -1 263 -5.9814276173710823e-03</internalNodes>
          <leafValues>
            -7.5086927413940430e-01 2.4371145293116570e-02</leafValues></_>
        <_>
          <internalNodes>
            0 -1 126 3.6836285144090652e-03</internalNodes>
          <leafValues>
            -1.0015759617090225e-01 1.7906333506107330e-01</leafValues></_>
        <_>
          <internalNodes>
            0 -1 247 -7.6308930292725563e-03</internalNodes>
          <leafValues>
            -4.9106609821319580e-01 3.9423536509275436e-02</leafValues></_>
        <_>
          <internalNodes>
            0 -1 635 2.9661566950380802e-03</internalNodes>
          <leafValues>
            3.3858269453048706e-02 -5.0498461723327637e-01</leafValues></_>
        <_>
          <internalNodes>
            0 -1 224 3.2616213429719210e-03</internalNodes>
          <leafValues>
            6.4097605645656586e-02 -3.2380720973014832e-01</leafValues></_>
        <_>
          <internalNodes>
            0 -1 1 4.4680465012788773e-02</internalNodes>
          <leafValues>
            2.2556582465767860e-02 -5.9671902656555176e-01</leafValues></_>
        <_>
          <internalNodes>
            0 -1 551 -7.6019424013793468e-03</internalNodes>
          <leafValues>
            -6.1738997697830200e-01 3.2800063490867615e-02</leafValues></_>
        <_>
          <internalNodes>
            0 -1 300 5.3168698213994503e-03</internalNodes>
          <leafValues>
            8.6631432175636292e-02 -2.2829988598823547e-01</leafValues></_>
        <_>
          <internalNodes>
            0 -1 109 2.9589265584945679e-02</internalNodes>
          <leafValues>
            -6.0651812702417374e-02 3.5849457979202271e-01</leafValues></_>
        <_>
          <internalNodes>
            0 -1 182 4.7407604753971100e-02</internalNodes>
          <leafValues>
            4.1726160794496536e-02 -4.6786686778068542e-01</leafValues></_>
        <_>
          <internalNodes>
            0 -1 640 -8.1202443689107895e-03</internalNodes>
          <leafValues>
            -7.3848408460617065e-01 2.6743110269308090e-02</leafValues></_>
        <_>
          <internalNodes>
            0 -1 118 -9.3941204249858856e-03</internalNodes>
          <leafValues>
            4.3199303746223450e-01 -5.1975980401039124e-02</leafValues></_>
        <_>
          <internalNodes>
            0 -1 393 1.8118187785148621e-02</internalNodes>
          <leafValues>
            -3.7284094840288162e-02 4.2204183340072632e-01</leafValues></_>
        <_>
          <internalNodes>
            0 -1 507 1.1089010536670685e-01</internalNodes>
          <leafValues>
            -2.4157999083399773e-02 1.</leafValues></_>
        <_>
          <internalNodes>
            0 -1 42 8.0872774124145508e-03</internalNodes>
          <leafValues>
            4.4365298002958298e-02 -4.9659460783004761e-01</leafValues></_>
        <_>
          <internalNodes>
            0 -1 181 -1.1920842807739973e-03</internalNodes>
          <leafValues>
            3.1137624382972717e-01 -7.1009151637554169e-02</leafValues></_>
        <_>
          <internalNodes>
            0 -1 642 -1.7994733061641455e-03</internalNodes>
          <leafValues>
            -1.9595883786678314e-01 9.9698781967163086e-02</leafValues></_>
        <_>
          <internalNodes>
            0 -1 563 5.8353361673653126e-03</internalNodes>
          <leafValues>
            6.3049226999282837e-02 -3.0223065614700317e-01</leafValues></_>
        <_>
          <internalNodes>
            0 -1 500 -5.2272588014602661e-02</internalNodes>
          <leafValues>
            -8.3422833681106567e-01 2.5577697902917862e-02</leafValues></_>
        <_>
          <internalNodes>
            0 -1 528 -1.5747278928756714e-02</internalNodes>
          <leafValues>
            6.4402544498443604e-01 -3.6944724619388580e-02</leafValues></_>
        <_>
          <internalNodes>
            0 -1 239 -8.7702162563800812e-03</internalNodes>
          <leafValues>
            1.7466101050376892e-01 -1.1217038333415985e-01</leafValues></_>
        <_>
          <internalNodes>
            0 -1 361 -2.9721658676862717e-02</internalNodes>
          <leafValues>
            -2.0353513956069946e-01 9.3494378030300140e-02</leafValues></_>
        <_>
          <internalNodes>
            0 -1 119 8.9378226548433304e-03</internalNodes>
          <leafValues>
            2.5733524933457375e-02 -8.4602993726730347e-01</leafValues></_>
        <_>
          <internalNodes>
            0 -1 106 1.7560794949531555e-02</internalNodes>
          <leafValues>
            -5.0005752593278885e-02 4.1468173265457153e-01</leafValues></_>
        <_>
          <internalNodes>
            0 -1 143 2.9497709125280380e-02</internalNodes>
          <leafValues>
            -2.6098500937223434e-02 6.6342484951019287e-01</leafValues></_>
        <_>
          <internalNodes>
            0 -1 516 3.0646592495031655e-04</internalNodes>
          <leafValues>
            -1.0774396359920502e-01 1.6360458731651306e-01</leafValues></_>
        <_>
          <internalNodes>
            0 -1 345 -1.7536787316203117e-02</internalNodes>
          <leafValues>
            4.2304500937461853e-01 -4.3341804295778275e-02</leafValues></_>
        <_>
          <internalNodes>
            0 -1 650 -7.3365224525332451e-03</internalNodes>
          <leafValues>
            -5.0916278362274170e-01 4.1964195668697357e-02</leafValues></_>
        <_>
          <internalNodes>
            0 -1 83 3.9531192742288113e-03</internalNodes>
          <leafValues>
            -5.8956384658813477e-02 3.1607931852340698e-01</leafValues></_>
        <_>
          <internalNodes>
            0 -1 238 -1.3089634478092194e-01</internalNodes>
          <leafValues>
            -6.5744423866271973e-01 2.9178258031606674e-02</leafValues></_>
        <_>
          <internalNodes>
            0 -1 429 5.8848727494478226e-03</internalNodes>
          <leafValues>
            1.6723956912755966e-02 -8.8246279954910278e-01</leafValues></_>
        <_>
          <internalNodes>
            0 -1 277 -6.2586548738181591e-03</internalNodes>
          <leafValues>
            -7.7194190025329590e-01 1.7565952613949776e-02</leafValues></_>
        <_>
          <internalNodes>
            0 -1 562 -1.6580227762460709e-02</internalNodes>
          <leafValues>
            5.4877310991287231e-01 -3.6386389285326004e-02</leafValues></_>
        <_>
          <internalNodes>
            0 -1 289 4.0420819073915482e-02</internalNodes>
          <leafValues>
            -7.9011350870132446e-02 2.4072608351707458e-01</leafValues></_>
        <_>
          <internalNodes>
            0 -1 651 -3.8400078192353249e-03</internalNodes>
          <leafValues>
            2.2042261064052582e-01 -1.0308827459812164e-01</leafValues></_>
        <_>
          <internalNodes>
            0 -1 572 1.0122685134410858e-01</internalNodes>
          <leafValues>
            -2.9739046469330788e-02 6.4128518104553223e-01</leafValues></_>
        <_>
          <internalNodes>
            0 -1 630 3.8028266280889511e-03</internalNodes>
          <leafValues>
            5.1786236464977264e-02 -4.2289122939109802e-01</leafValues></_>
        <_>
          <internalNodes>
            0 -1 190 1.0016742162406445e-02</internalNodes>
          <leafValues>
            5.3244441747665405e-02 -3.9988276362419128e-01</leafValues></_>
        <_>
          <internalNodes>
            0 -1 482 5.1291440613567829e-03</internalNodes>
          <leafValues>
            -7.6184242963790894e-02 2.6043754816055298e-01</leafValues></_>
        <_>
          <internalNodes>
            0 -1 575 3.6741653457283974e-03</internalNodes>
          <leafValues>
            1.1562081426382065e-01 -1.6217198967933655e-01</leafValues></_>
        <_>
          <internalNodes>
            0 -1 584 -8.0831274390220642e-03</internalNodes>
          <leafValues>
            -4.2145895957946777e-01 4.8512279987335205e-02</leafValues></_>
        <_>
          <internalNodes>
            0 -1 245 1.7084199190139771e-01</internalNodes>
          <leafValues>
            2.4194855242967606e-02 -7.6155394315719604e-01</leafValues></_>
        <_>
          <internalNodes>
            0 -1 226 1.1268315464258194e-01</internalNodes>
          <leafValues>
            -2.5440379977226257e-02 8.8871979713439941e-01</leafValues></_>
        <_>
          <internalNodes>
            0 -1 475 -1.2208689935505390e-02</internalNodes>
          <leafValues>
            2.0400315523147583e-01 -9.7967281937599182e-02</leafValues></_>
        <_>
          <internalNodes>
            0 -1 410 1.6460906714200974e-02</internalNodes>
          <leafValues>
            3.8254700601100922e-02 -4.7562813758850098e-01</leafValues></_>
        <_>
          <internalNodes>
            0 -1 502 -1.4902478083968163e-02</internalNodes>
          <leafValues>
            8.3892452716827393e-01 -2.1925419569015503e-02</leafValues></_>
        <_>
          <internalNodes>
            0 -1 457 1.6099393367767334e-02</internalNodes>
          <leafValues>
            1.3132469356060028e-01 -1.5290059149265289e-01</leafValues></_>
        <_>
          <internalNodes>
            0 -1 578 5.3509841673076153e-03</internalNodes>
          <leafValues>
            -6.7767038941383362e-02 3.4052273631095886e-01</leafValues></_>
        <_>
          <internalNodes>
            0 -1 503 3.4084811806678772e-02</internalNodes>
          <leafValues>
            2.7966139838099480e-02 -8.5966712236404419e-01</leafValues></_>
        <_>
          <internalNodes>
            0 -1 48 1.4312932267785072e-02</internalNodes>
          <leafValues>
            3.0456027016043663e-02 -4.9894854426383972e-01</leafValues></_>
        <_>
          <internalNodes>
            0 -1 519 -1.3060043565928936e-03</internalNodes>
          <leafValues>
            -2.8241327404975891e-01 6.7815832793712616e-02</leafValues></_>
        <_>
          <internalNodes>
            0 -1 4 -5.2352156490087509e-04</internalNodes>
          <leafValues>
            -1.4394642412662506e-01 1.3324058055877686e-01</leafValues></_>
        <_>
          <internalNodes>
            0 -1 476 7.0215478539466858e-02</internalNodes>
          <leafValues>
            3.0260453000664711e-02 -6.7920571565628052e-01</leafValues></_>
        <_>
          <internalNodes>
            0 -1 58 4.8037923872470856e-02</internalNodes>
          <leafValues>
            -3.5001680254936218e-02 6.8155050277709961e-01</leafValues></_>
        <_>
          <internalNodes>
            0 -1 538 2.3931451141834259e-02</internalNodes>
          <leafValues>
            -5.4727107286453247e-02 3.6021173000335693e-01</leafValues></_>
        <_>
          <internalNodes>
            0 -1 19 -6.5553829073905945e-02</internalNodes>
          <leafValues>
            -3.6998817324638367e-01 6.2665417790412903e-02</leafValues></_>
        <_>
          <internalNodes>
            0 -1 352 4.7756237909197807e-03</internalNodes>
          <leafValues>
            7.7844500541687012e-02 -2.8836813569068909e-01</leafValues></_>
        <_>
          <internalNodes>
            0 -1 78 -3.8275616243481636e-03</internalNodes>
          <leafValues>
            1.8913760781288147e-01 -1.1204065382480621e-01</leafValues></_>
        <_>
          <internalNodes>
            0 -1 404 2.0643773023039103e-03</internalNodes>
          <leafValues>
            -8.7928906083106995e-02 2.3758880794048309e-01</leafValues></_>
        <_>
          <internalNodes>
            0 -1 613 1.0618318337947130e-03</internalNodes>
          <leafValues>
            8.5740908980369568e-02 -2.5982341170310974e-01</leafValues></_>
        <_>
          <internalNodes>
            0 -1 306 -1.3627389445900917e-02</internalNodes>
          <leafValues>
            4.1226035356521606e-01 -4.5325838029384613e-02</leafValues></_>
        <_>
          <internalNodes>
            0 -1 16 8.0274619162082672e-02</internalNodes>
          <leafValues>
            -3.9550293236970901e-02 4.4527083635330200e-01</leafValues></_>
        <_>
          <internalNodes>
            0 -1 149 -6.3209496438503265e-03</internalNodes>
          <leafValues>
            -3.0973359942436218e-01 7.3165811598300934e-02</leafValues></_>
        <_>
          <internalNodes>
            0 -1 254 -7.0343806874006987e-04</internalNodes>
          <leafValues>
            1.5980969369411469e-01 -1.3514102995395660e-01</leafValues></_>
        <_>
          <internalNodes>
            0 -1 39 -8.4141612052917480e-02</internalNodes>
          <leafValues>
            3.3722740411758423e-01 -6.3157856464385986e-02</leafValues></_>
        <_>
          <internalNodes>
            0 -1 471 -2.3676198907196522e-03</internalNodes>
          <leafValues>
            3.8179123401641846e-01 -5.1733635365962982e-02</leafValues></_>
        <_>
          <internalNodes>
            0 -1 186 3.3401800319552422e-03</internalNodes>
          <leafValues>
            6.4528353512287140e-02 -3.1947192549705505e-01</leafValues></_></weakClassifiers></_>
    <!-- stage 6 -->
    <_>
      <maxWeakCount>70</maxWeakCount>
      <stageThreshold>-4.8226368427276611e-01</stageThreshold>
      <weakClassifiers>
        <_>
          <internalNodes>
            0 -1 71 -7.8646244946867228e-04</internalNodes>
          <leafValues>
            4.6410256624221802e-01 1.9166666269302368e-01</leafValues></_>
        <_>
          <internalNodes>
            0 -1 448 -1.6847097873687744e-01</internalNodes>
          <leafValues>
            8.1493157148361206e-01 -7.7244248241186142e-03</leafValues></_>
        <_>
          <internalNodes>
            0 -1 605 -9.6240565180778503e-03</internalNodes>
          <leafValues>
            3.0573114752769470e-01 -7.7245362102985382e-02</leafValues></_>
        <_>
          <internalNodes>
            0 -1 406 9.4467616872861981e-04</internalNodes>
          <leafValues>
            -1.0591169446706772e-01 1.9178040325641632e-01</leafValues></_>
        <_>
          <internalNodes>
            0 -1 218 -4.3880548328161240e-03</internalNodes>
          <leafValues>
            1.6469547152519226e-01 -1.3536846637725830e-01</leafValues></_>
        <_>
          <internalNodes>
            0 -1 624 -5.1519824191927910e-03</internalNodes>
          <leafValues>
            -8.3065420389175415e-01 2.6212932541966438e-02</leafValues></_>
        <_>
          <internalNodes>
            0 -1 531 4.0058824233710766e-03</internalNodes>
          <leafValues>
            3.0891111120581627e-02 -6.0211133956909180e-01</leafValues></_>
        <_>
          <internalNodes>
            0 -1 265 -2.0871534943580627e-02</internalNodes>
          <leafValues>
            2.5826069712638855e-01 -7.7359490096569061e-02</leafValues></_>
        <_>
          <internalNodes>
            0 -1 489 -6.5454319119453430e-03</internalNodes>
          <leafValues>
            2.1172551810741425e-01 -9.5125302672386169e-02</leafValues></_>
        <_>
          <internalNodes>
            0 -1 262 -1.1580465361475945e-02</internalNodes>
          <leafValues>
            -2.7213576436042786e-01 7.2177685797214508e-02</leafValues></_>
        <_>
          <internalNodes>
            0 -1 466 -2.8584892861545086e-03</internalNodes>
          <leafValues>
            2.6204270124435425e-01 -7.7094718813896179e-02</leafValues></_>
        <_>
          <internalNodes>
            0 -1 282 -3.6702118813991547e-02</internalNodes>
          <leafValues>
            3.0762216448783875e-01 -6.9664843380451202e-02</leafValues></_>
        <_>
          <internalNodes>
            0 -1 174 4.7751246020197868e-03</internalNodes>
          <leafValues>
            3.0468719080090523e-02 -6.8923556804656982e-01</leafValues></_>
        <_>
          <internalNodes>
            0 -1 176 -1.6762576997280121e-02</internalNodes>
          <leafValues>
            5.7074493169784546e-01 -3.4826308488845825e-02</leafValues></_>
        <_>
          <internalNodes>
            0 -1 128 7.0512834936380386e-03</internalNodes>
          <leafValues>
            -8.7606944143772125e-02 2.4499906599521637e-01</leafValues></_>
        <_>
          <internalNodes>
            0 -1 340 -4.5756977051496506e-03</internalNodes>
          <leafValues>
            -2.9340884089469910e-01 6.4333319664001465e-02</leafValues></_>
        <_>
          <internalNodes>
            0 -1 604 5.6861182674765587e-03</internalNodes>
          <leafValues>
            -7.6106637716293335e-02 2.4221085011959076e-01</leafValues></_>
        <_>
          <internalNodes>
            0 -1 631 -6.0376571491360664e-04</internalNodes>
          <leafValues>
            -1.8100319802761078e-01 1.0419082641601562e-01</leafValues></_>
        <_>
          <internalNodes>
            0 -1 543 -5.3564324043691158e-03</internalNodes>
          <leafValues>
            2.4482418596744537e-01 -8.6272470653057098e-02</leafValues></_>
        <_>
          <internalNodes>
            0 -1 451 5.3077377378940582e-03</internalNodes>
          <leafValues>
            2.6212317869067192e-02 -8.5065031051635742e-01</leafValues></_>
        <_>
          <internalNodes>
            0 -1 514 2.1841272246092558e-04</internalNodes>
          <leafValues>
            1.2541504204273224e-01 -1.4576056599617004e-01</leafValues></_>
        <_>
          <internalNodes>
            0 -1 131 2.4498015642166138e-02</internalNodes>
          <leafValues>
            2.3515049368143082e-02 -7.3607105016708374e-01</leafValues></_>
        <_>
          <internalNodes>
            0 -1 488 5.7404100894927979e-02</internalNodes>
          <leafValues>
            2.3848675191402435e-02 -6.9701772928237915e-01</leafValues></_>
        <_>
          <internalNodes>
            0 -1 549 -7.5726029463112354e-03</internalNodes>
          <leafValues>
            2.0929238200187683e-01 -9.1278836131095886e-02</leafValues></_>
        <_>
          <internalNodes>
            0 -1 617 -1.0609086602926254e-03</internalNodes>
          <leafValues>
            -2.6906210184097290e-01 7.0250071585178375e-02</leafValues></_>
        <_>
          <internalNodes>
            0 -1 47 5.7962775230407715e-02</internalNodes>
          <leafValues>
            -4.0466319769620895e-02 4.6196004748344421e-01</leafValues></_>
        <_>
          <internalNodes>
            0 -1 179 -4.4564441777765751e-03</internalNodes>
          <leafValues>
            2.6896983385086060e-01 -6.8515837192535400e-02</leafValues></_>
        <_>
          <internalNodes>
            0 -1 460 6.9708499358966947e-04</internalNodes>
          <leafValues>
            1.2153574824333191e-01 -1.6038919985294342e-01</leafValues></_>
        <_>
          <internalNodes>
            0 -1 90 8.6122609674930573e-02</internalNodes>
          <leafValues>
            -3.1978935003280640e-02 5.5604565143585205e-01</leafValues></_>
        <_>
          <internalNodes>
            0 -1 142 3.3178053796291351e-02</internalNodes>
          <leafValues>
            -2.8400300070643425e-02 6.0631906986236572e-01</leafValues></_>
        <_>
          <internalNodes>
            0 -1 639 -4.2667257366701961e-04</internalNodes>
          <leafValues>
            -1.7903560400009155e-01 1.2340228259563446e-01</leafValues></_>
        <_>
          <internalNodes>
            0 -1 318 -4.2481310665607452e-03</internalNodes>
          <leafValues>
            3.0200037360191345e-01 -7.4880108237266541e-02</leafValues></_>
        <_>
          <internalNodes>
            0 -1 198 -7.8806104138493538e-03</internalNodes>
          <leafValues>
            -8.5139977931976318e-01 2.4858973920345306e-02</leafValues></_>
        <_>
          <internalNodes>
            0 -1 281 1.2606770731508732e-02</internalNodes>
          <leafValues>
            2.1756416186690331e-02 -6.9603961706161499e-01</leafValues></_>
        <_>
          <internalNodes>
            0 -1 215 -1.9015796715393662e-03</internalNodes>
          <leafValues>
            -1.6916447877883911e-01 1.0441667586565018e-01</leafValues></_>
        <_>
          <internalNodes>
            0 -1 154 2.4647610262036324e-03</internalNodes>
          <leafValues>
            -7.7764332294464111e-02 2.3966141045093536e-01</leafValues></_>
        <_>
          <internalNodes>
            0 -1 299 3.0364992562681437e-03</internalNodes>
          <leafValues>
            4.0338251739740372e-02 -4.9786299467086792e-01</leafValues></_>
        <_>
          <internalNodes>
            0 -1 369 -2.9066484421491623e-03</internalNodes>
          <leafValues>
            2.4887740612030029e-01 -9.4928190112113953e-02</leafValues></_>
        <_>
          <internalNodes>
            0 -1 580 -7.6641357736662030e-05</internalNodes>
          <leafValues>
            -1.3719183206558228e-01 1.4816963672637939e-01</leafValues></_>
        <_>
          <internalNodes>
            0 -1 61 -1.0664705187082291e-01</internalNodes>
          <leafValues>
            -5.0024926662445068e-01 3.7894513458013535e-02</leafValues></_>
        <_>
          <internalNodes>
            0 -1 170 1.3786280527710915e-02</internalNodes>
          <leafValues>
            -4.4335924088954926e-02 4.1355565190315247e-01</leafValues></_>
        <_>
          <internalNodes>
            0 -1 233 2.3032021708786488e-03</internalNodes>
          <leafValues>
            6.4580745995044708e-02 -3.5858866572380066e-01</leafValues></_>
        <_>
          <internalNodes>
            0 -1 269 -4.3289745226502419e-03</internalNodes>
          <leafValues>
            -7.2259485721588135e-01 2.9388982802629471e-02</leafValues></_>
        <_>
          <internalNodes>
            0 -1 169 -1.8847573548555374e-02</internalNodes>
          <leafValues>
            4.6859139204025269e-01 -4.0453966706991196e-02</leafValues></_>
        <_>
          <internalNodes>
            0 -1 161 -3.4515015780925751e-02</internalNodes>
          <leafValues>
            7.4138629436492920e-01 -2.1778991445899010e-02</leafValues></_>
        <_>
          <internalNodes>
            0 -1 192 -1.1190598830580711e-02</internalNodes>
          <leafValues>
            -3.9059638977050781e-01 5.1605902612209320e-02</leafValues></_>
        <_>
          <internalNodes>
            0 -1 554 -4.3964298674836755e-04</internalNodes>
          <leafValues>
            1.3863219320774078e-01 -1.2683811783790588e-01</leafValues></_>
        <_>
          <internalNodes>
            0 -1 492 2.4918578565120697e-02</internalNodes>
          <leafValues>
            -6.0808889567852020e-02 2.9646825790405273e-01</leafValues></_>
        <_>
          <internalNodes>
            0 -1 22 -3.6731327418237925e-03</internalNodes>
          <leafValues>
            2.2376972436904907e-01 -8.6210414767265320e-02</leafValues></_>
        <_>
          <internalNodes>
            0 -1 28 -6.2291482463479042e-03</internalNodes>
          <leafValues>
            -5.9435468912124634e-01 3.1706180423498154e-02</leafValues></_>
        <_>
          <internalNodes>
            0 -1 44 4.3344842270016670e-03</internalNodes>
          <leafValues>
            9.5895476639270782e-02 -1.9664508104324341e-01</leafValues></_>
        <_>
          <internalNodes>
            0 -1 211 2.4823707062751055e-03</internalNodes>
          <leafValues>
            1.3641920685768127e-01 -1.4742371439933777e-01</leafValues></_>
        <_>
          <internalNodes>
            0 -1 219 5.4906152188777924e-02</internalNodes>
          <leafValues>
            3.5098876804113388e-02 -5.4809564352035522e-01</leafValues></_>
        <_>
          <internalNodes>
            0 -1 36 7.5460575520992279e-02</internalNodes>
          <leafValues>
            -3.3079039305448532e-02 6.6226869821548462e-01</leafValues></_>
        <_>
          <internalNodes>
            0 -1 134 2.3523552343249321e-02</internalNodes>
          <leafValues>
            2.9142297804355621e-02 -8.3067119121551514e-01</leafValues></_>
        <_>
          <internalNodes>
            0 -1 127 -3.8419160991907120e-03</internalNodes>
          <leafValues>
            1.3644826412200928e-01 -1.4016975462436676e-01</leafValues></_>
        <_>
          <internalNodes>
            0 -1 437 -7.3653779923915863e-02</internalNodes>
          <leafValues>
            -4.9977013468742371e-01 4.0130667388439178e-02</leafValues></_>
        <_>
          <internalNodes>
            0 -1 614 -4.6804030425846577e-03</internalNodes>
          <leafValues>
            2.3217155039310455e-01 -8.5343562066555023e-02</leafValues></_>
        <_>
          <internalNodes>
            0 -1 359 -5.1789108663797379e-02</internalNodes>
          <leafValues>
            7.5248563289642334e-01 -2.7835171669721603e-02</leafValues></_>
        <_>
          <internalNodes>
            0 -1 645 -3.8810480386018753e-02</internalNodes>
          <leafValues>
            -9.6277648210525513e-01 2.8492093086242676e-02</leafValues></_>
        <_>
          <internalNodes>
            0 -1 619 6.1012250371277332e-03</internalNodes>
          <leafValues>
            -1.0218673199415207e-01 1.9175167381763458e-01</leafValues></_>
        <_>
          <internalNodes>
            0 -1 303 5.4582939483225346e-03</internalNodes>
          <leafValues>
            2.3735189810395241e-02 -9.4155657291412354e-01</leafValues></_>
        <_>
          <internalNodes>
            0 -1 242 -8.5960462689399719e-02</internalNodes>
          <leafValues>
            4.4914203882217407e-01 -4.7595378011465073e-02</leafValues></_>
        <_>
          <internalNodes>
            0 -1 276 -1.3259422779083252e-01</internalNodes>
          <leafValues>
            -5.3766608238220215e-01 4.0914207696914673e-02</leafValues></_>
        <_>
          <internalNodes>
            0 -1 208 -1.7323389183729887e-03</internalNodes>
          <leafValues>
            -2.3035374283790588e-01 8.6213193833827972e-02</leafValues></_>
        <_>
          <internalNodes>
            0 -1 69 1.4606187120079994e-02</internalNodes>
          <leafValues>
            -8.0027066171169281e-02 2.5158238410949707e-01</leafValues></_>
        <_>
          <internalNodes>
            0 -1 376 -4.8616528511047363e-03</internalNodes>
          <leafValues>
            4.1746133565902710e-01 -5.2417036145925522e-02</leafValues></_>
        <_>
          <internalNodes>
            0 -1 228 5.7567398995161057e-02</internalNodes>
          <leafValues>
            -2.5801012292504311e-02 7.1768808364868164e-01</leafValues></_>
        <_>
          <internalNodes>
            0 -1 146 1.5884958207607269e-02</internalNodes>
          <leafValues>
            3.4534331411123276e-02 -6.6921895742416382e-01</leafValues></_>
        <_>
          <internalNodes>
            0 -1 40 -7.6410109177231789e-03</internalNodes>
          <leafValues>
            2.4912416934967041e-01 -7.7080100774765015e-02</leafValues></_></weakClassifiers></_>
    <!-- stage 7 -->
    <_>
      <maxWeakCount>70</maxWeakCount>
      <stageThreshold>-5.1632469892501831e-01</stageThreshold>
      <weakClassifiers>
        <_>
          <internalNodes>
            0 -1 574 -4.2565725743770599e-02</internalNodes>
          <leafValues>
            6.2416106462478638e-01 2.6123127341270447e-01</leafValues></_>
        <_>
          <internalNodes>
            0 -1 324 -1.7140287905931473e-02</internalNodes>
          <leafValues>
            4.2181190848350525e-01 -2.9848430305719376e-02</leafValues></_>
        <_>
          <internalNodes>
            0 -1 210 -3.3933095633983612e-02</internalNodes>
          <leafValues>
            2.8164425492286682e-01 -8.9312911033630371e-02</leafValues></_>
        <_>
          <internalNodes>
            0 -1 158 6.6879123449325562e-02</internalNodes>
          <leafValues>
            -6.0654275119304657e-02 5.1546877622604370e-01</leafValues></_>
        <_>
          <internalNodes>
            0 -1 579 -5.8560920879244804e-03</internalNodes>
          <leafValues>
            2.1382315456867218e-01 -1.0193377733230591e-01</leafValues></_>
        <_>
          <internalNodes>
            0 -1 656 -2.1088378503918648e-02</internalNodes>
          <leafValues>
            -5.5603653192520142e-01 4.4810134917497635e-02</leafValues></_>
        <_>
          <internalNodes>
            0 -1 418 -8.0476731061935425e-02</internalNodes>
          <leafValues>
            4.1388967633247375e-01 -6.0777373611927032e-02</leafValues></_>
        <_>
          <internalNodes>
            0 -1 338 -2.5951715186238289e-02</internalNodes>
          <leafValues>
            6.1662864685058594e-01 -2.4501161649823189e-02</leafValues></_>
        <_>
          <internalNodes>
            0 -1 643 1.2278372014407068e-04</internalNodes>
          <leafValues>
            1.3419798016548157e-01 -1.5407072007656097e-01</leafValues></_>
        <_>
          <internalNodes>
            0 -1 122 -1.4114314690232277e-02</internalNodes>
          <leafValues>
            3.2235077023506165e-01 -6.0692653059959412e-02</leafValues></_>
        <_>
          <internalNodes>
            0 -1 165 -3.1873919069766998e-02</internalNodes>
          <leafValues>
            6.8972295522689819e-01 -2.7647983282804489e-02</leafValues></_>
        <_>
          <internalNodes>
            0 -1 456 3.0064904130995274e-03</internalNodes>
          <leafValues>
            -6.4873881638050079e-02 2.9790982604026794e-01</leafValues></_>
        <_>
          <internalNodes>
            0 -1 434 -5.7994779199361801e-03</internalNodes>
          <leafValues>
            -8.0420291423797607e-01 2.9947143048048019e-02</leafValues></_>
        <_>
          <internalNodes>
            0 -1 461 -3.1512938439846039e-02</internalNodes>
          <leafValues>
            2.9367032647132874e-01 -7.4126213788986206e-02</leafValues></_>
        <_>
          <internalNodes>
            0 -1 274 -7.5388252735137939e-02</internalNodes>
          <leafValues>
            -3.8311967253684998e-01 6.2614813446998596e-02</leafValues></_>
        <_>
          <internalNodes>
            0 -1 344 -4.5884024351835251e-02</internalNodes>
          <leafValues>
            5.5354255437850952e-01 -3.7408635020256042e-02</leafValues></_>
        <_>
          <internalNodes>
            0 -1 501 7.0411795750260353e-03</internalNodes>
          <leafValues>
            6.3252955675125122e-02 -3.4727802872657776e-01</leafValues></_>
        <_>
          <internalNodes>
            0 -1 98 9.3986615538597107e-03</internalNodes>
          <leafValues>
            -7.2612665593624115e-02 2.8125020861625671e-01</leafValues></_>
        <_>
          <internalNodes>
            0 -1 610 -2.5661480613052845e-03</internalNodes>
          <leafValues>
            1.9405759871006012e-01 -1.0604804754257202e-01</leafValues></_>
        <_>
          <internalNodes>
            0 -1 403 -2.6370212435722351e-02</internalNodes>
          <leafValues>
            5.3328239917755127e-01 -3.5941131412982941e-02</leafValues></_>
        <_>
          <internalNodes>
            0 -1 625 1.6426937654614449e-03</internalNodes>
          <leafValues>
            -1.0761021822690964e-01 2.1336902678012848e-01</leafValues></_>
        <_>
          <internalNodes>
            0 -1 629 5.9753474488388747e-05</internalNodes>
          <leafValues>
            1.4529739320278168e-01 -1.4508605003356934e-01</leafValues></_>
        <_>
          <internalNodes>
            0 -1 540 -8.7111443281173706e-02</internalNodes>
          <leafValues>
            8.2162266969680786e-01 -2.6333056390285492e-02</leafValues></_>
        <_>
          <internalNodes>
            0 -1 395 2.9784820508211851e-03</internalNodes>
          <leafValues>
            4.6276453882455826e-02 -5.1072371006011963e-01</leafValues></_>
        <_>
          <internalNodes>
            0 -1 284 -1.1218886356800795e-03</internalNodes>
          <leafValues>
            1.9434122741222382e-01 -1.0241904854774475e-01</leafValues></_>
        <_>
          <internalNodes>
            0 -1 141 -2.6777079328894615e-03</internalNodes>
          <leafValues>
            -2.8137668967247009e-01 7.0119261741638184e-02</leafValues></_>
        <_>
          <internalNodes>
            0 -1 89 -2.2332619875669479e-02</internalNodes>
          <leafValues>
            6.9530600309371948e-01 -2.9423555359244347e-02</leafValues></_>
        <_>
          <internalNodes>
            0 -1 185 -6.3986688852310181e-02</internalNodes>
          <leafValues>
            1. -1.4750499278306961e-02</leafValues></_>
        <_>
          <internalNodes>
            0 -1 478 5.1690684631466866e-04</internalNodes>
          <leafValues>
            -9.4264641404151917e-02 2.1187371015548706e-01</leafValues></_>
        <_>
          <internalNodes>
            0 -1 495 2.9236674308776855e-03</internalNodes>
          <leafValues>
            -4.8229105770587921e-02 4.4974768161773682e-01</leafValues></_>
        <_>
          <internalNodes>
            0 -1 427 9.5903109759092331e-03</internalNodes>
          <leafValues>
            3.8117766380310059e-02 -6.0200649499893188e-01</leafValues></_>
        <_>
          <internalNodes>
            0 -1 596 -1.8801119178533554e-02</internalNodes>
          <leafValues>
            8.0703639984130859e-01 -3.1881913542747498e-02</leafValues></_>
        <_>
          <internalNodes>
            0 -1 319 9.9942125380039215e-02</internalNodes>
          <leafValues>
            -3.4620523452758789e-02 5.2702009677886963e-01</leafValues></_>
        <_>
          <internalNodes>
            0 -1 623 -8.1908074207603931e-04</internalNodes>
          <leafValues>
            -2.2662281990051270e-01 9.1383479535579681e-02</leafValues></_>
        <_>
          <internalNodes>
            0 -1 412 -4.8389313742518425e-03</internalNodes>
          <leafValues>
            -5.7803338766098022e-01 3.3809948712587357e-02</leafValues></_>
        <_>
          <internalNodes>
            0 -1 231 1.5064989565871656e-04</internalNodes>
          <leafValues>
            1.2878808379173279e-01 -1.5536735951900482e-01</leafValues></_>
        <_>
          <internalNodes>
            0 -1 64 9.0932682156562805e-02</internalNodes>
          <leafValues>
            2.7977121993899345e-02 -8.1317055225372314e-01</leafValues></_>
        <_>
          <internalNodes>
            0 -1 604 2.5677919387817383e-02</internalNodes>
          <leafValues>
            1.9775994122028351e-02 -7.8840005397796631e-01</leafValues></_>
        <_>
          <internalNodes>
            0 -1 275 -1.9181247055530548e-01</internalNodes>
          <leafValues>
            7.6781898736953735e-01 -3.2180644571781158e-02</leafValues></_>
        <_>
          <internalNodes>
            0 -1 243 3.0070040374994278e-02</internalNodes>
          <leafValues>
            4.7555577009916306e-02 -5.3045088052749634e-01</leafValues></_>
        <_>
          <internalNodes>
            0 -1 24 6.6315278410911560e-02</internalNodes>
          <leafValues>
            -5.0904132425785065e-02 4.7285982966423035e-01</leafValues></_>
        <_>
          <internalNodes>
            0 -1 606 -1.1558902449905872e-02</internalNodes>
          <leafValues>
            2.8323099017143250e-01 -7.2169005870819092e-02</leafValues></_>
        <_>
          <internalNodes>
            0 -1 633 -6.4346566796302795e-03</internalNodes>
          <leafValues>
            2.9082578420639038e-01 -6.9058790802955627e-02</leafValues></_>
        <_>
          <internalNodes>
            0 -1 591 2.3745788261294365e-02</internalNodes>
          <leafValues>
            5.4974071681499481e-02 -3.8012245297431946e-01</leafValues></_>
        <_>
          <internalNodes>
            0 -1 68 -5.8030597865581512e-03</internalNodes>
          <leafValues>
            2.5783932209014893e-01 -8.0385640263557434e-02</leafValues></_>
        <_>
          <internalNodes>
            0 -1 510 5.3379847668111324e-04</internalNodes>
          <leafValues>
            -8.6657129228115082e-02 2.3660352826118469e-01</leafValues></_>
        <_>
          <internalNodes>
            0 -1 576 1.4587644487619400e-02</internalNodes>
          <leafValues>
            -3.3117935061454773e-02 6.0883790254592896e-01</leafValues></_>
        <_>
          <internalNodes>
            0 -1 405 1.8196655437350273e-03</internalNodes>
          <leafValues>
            -1.1185418814420700e-01 1.8878380954265594e-01</leafValues></_>
        <_>
